-0.062908
0.125988
0.299096
0.112263
0.285285
0.127995
0.182805
-0.030966
0.545207
0.156524
-0.134169
-0.171080
0.273990
0.227735
0.267150
0.261916
0.045637
-1.426435
0.609499
0.082353
0.096382
0.156791
-0.290529
0.126419
0.209949
0.072459
-0.000272
-0.220860
0.111734
0.480316
0.035515
-0.274906
-0.502745
0.000696
-0.122658
0.148776
-0.008210
0.132057
0.299204
-0.164740
0.324647
0.534890
0.244960
0.599357
0.033782
0.066390
0.489764
0.421062
0.634658
-0.094680
-0.078501
0.256972
0.076671
-0.239270
0.171035
0.416782
0.269762
-0.460041
-0.084528
0.277831
0.267502
0.332147
0.050680
-0.086297
-0.210071
-0.052222
-0.041103
-0.139158
-0.304900
0.301667
0.235812
-0.387360
-0.060125
0.903748
-0.140037
0.531971
0.231839
0.206893
0.233843
-0.363928
0.220362
-0.540820
-0.649252
0.098469
0.340300
0.284751
-0.116680
-0.149381
0.267404
-0.146948
0.052876
0.296558
0.014841
0.173200
0.152111
0.011128
-0.024402
-0.092617
-0.054720
0.177708
0.007646
-0.015598
-0.019971
0.030060
0.342801
0.184837
-0.189298
0.119168
0.043845
0.240884
-0.129484
0.286586
-0.339826
0.172421
-0.013951
-0.033238
-0.213737
-0.390501
0.698304
0.028698
0.074814
0.158772
0.162031
0.038714
0.149810
-0.070573
0.282104
0.301930
-0.479250
0.094767
-0.258249
-0.304979
0.371553
0.042541
0.229617
0.071776
0.107669
0.211969
0.280179
0.375078
-0.129754
0.223531
0.015561
0.298954
0.582712
0.447666
0.319336
0.155091
0.160812
0.247623
-0.670926
0.248839
0.147372
0.093295
0.239915
-0.253627
-0.058247
0.224077
0.159199
-0.056825
0.465304
-0.211657
-0.318391
-1.230348
0.120676
-0.010088
0.331444
0.885293
-0.050530
0.400946
-0.129230
-0.066521
0.269286
0.296774
-0.515118
-0.139412
0.033986
0.505259
0.238805
0.090405
0.286054
-0.053700
-0.230425
-0.069528
0.062750
-0.083527
-0.146096
0.180693
-0.177981
-0.097765
-0.006448
0.811478
0.200517
0.307096
-0.236013
0.073178
0.111718
0.283656
0.066962
0.161073
-0.677225
0.138173
0.173444
-0.044210
-0.250596
-0.265209
0.167253
-0.168384
-0.085105
0.124618
0.042133
0.109982
0.433149
0.147618
-0.022403
0.217703
0.059078
0.299271
0.084790
-0.280612
0.037362
-0.199438
-0.486716
0.203936
0.198242
0.138280
0.030206
-0.207215
0.709207
-0.109124
0.481551
0.292000
0.047852
-0.795374
-0.044115
0.133309
-0.196172
0.337794
0.406197
-0.113343
0.051684
0.077361
0.267907
0.328196
0.189263
-0.021592
0.053141
-0.243031
0.159200
0.574909
0.077323
-0.007190
0.311486
0.033197
0.276317
0.143427
