0.118640
0.094069
0.095435
0.105151
0.102910
0.067224
0.050466
0.050125
0.055822
0.021575
0.049963
0.074882
0.038940
0.052979
0.075955
0.072286
0.072904
0.052016
0.027115
0.025709
-0.011299
0.004159
0.075425
0.038779
0.054930
0.055807
0.052543
0.050020
0.047630
0.025285
0.043596
0.010225
0.013251
0.070420
0.052510
0.063095
0.062153
0.058876
0.038574
0.045036
0.038129
0.045773
0.001921
0.002963
0.087315
0.074974
0.071627
0.083448
0.094555
0.065405
0.033532
0.021039
0.022060
-0.010646
-0.034279
0.095834
0.099245
0.100566
0.108783
0.072587
0.036077
-0.007483
-0.043091
-0.037889
-0.056757
-0.055963
0.114996
0.115479
0.107120
0.091494
0.002907
-0.089992
-0.113258
-0.139057
-0.124841
-0.084459
-0.074509
0.095471
0.110349
0.082495
0.042119
-0.059404
-0.159455
-0.123679
-0.158088
-0.164254
-0.115264
-0.092841
0.093155
0.103735
0.067547
0.024372
-0.069680
-0.183716
-0.135717
-0.184879
-0.202766
-0.128394
-0.112198
0.043544
0.064916
0.036164
0.004665
-0.090227
-0.193933
-0.244158
-0.243892
-0.202475
-0.113755
-0.107193
0.047369
0.062543
0.024758
-0.019545
-0.067766
-0.117128
-0.139777
-0.163033
-0.118444
-0.095567
-0.083890
-0.072634
-0.057996
-0.080661
-0.081507
-0.067785
-0.090086
-0.070811
-0.027998
-0.000603
-0.025309
0.025471
-0.069042
-0.067562
-0.076367
-0.046964
-0.040556
-0.065499
-0.046131
-0.031783
-0.003962
-0.030402
0.010477
-0.099517
-0.085592
-0.105210
-0.092637
-0.085859
-0.099658
-0.086250
-0.070337
-0.026587
-0.022777
0.006645
-0.094640
-0.078322
-0.105323
-0.110788
-0.101979
-0.123653
-0.120961
-0.085552
-0.037318
-0.036591
-0.007301
-0.102064
-0.069244
-0.122567
-0.107152
-0.099375
-0.102183
-0.108507
-0.088346
-0.054817
-0.037338
0.000408
-0.140007
-0.095121
-0.124589
-0.121331
-0.108606
-0.086433
-0.037810
-0.049950
-0.005676
0.023403
0.047580
-0.188679
-0.122044
-0.156992
-0.105898
-0.098599
-0.003064
0.136903
0.145563
0.115965
0.115539
0.091657
-0.181046
-0.134382
-0.155105
-0.089846
0.001590
0.173891
0.470860
0.448786
0.281524
0.188982
0.107554
-0.151210
-0.088735
-0.096737
-0.026970
0.100584
0.297608
0.572010
0.493252
0.308533
0.180955
0.084297
-0.143092
-0.075710
-0.072215
-0.011784
0.069825
0.165277
0.277258
0.252756
0.204166
0.164469
0.095166
-0.085925
-0.040134
-0.051491
-0.018812
0.035222
0.125157
0.170382
0.176446
0.163516
0.148219
0.101960
-0.023596
-0.002126
-0.027761
-0.008478
-0.030267
-0.060100
-0.049726
-0.000579
0.039940
-0.007112
0.032207
0.000257
0.022468
0.008907
0.047770
0.024442
0.000668
0.016549
0.023912
0.018771
-0.014155
0.018275
0.005408
0.029397
0.000331
0.001350
-0.004740
-0.034797
-0.021850
-0.028105
0.012054
-0.002524
0.008352
0.018211
0.047395
0.007046
0.000549
-0.024999
-0.042778
-0.059947
-0.053060
-0.016697
-0.023608
-0.001174
0.025875
0.049793
-0.007066
-0.012771
-0.030168
-0.043942
-0.089338
-0.098411
-0.054817
-0.044417
-0.006841
-0.020219
0.023867
-0.024085
-0.037948
-0.076839
-0.076051
-0.061430
-0.059945
-0.046934
-0.011462
0.025294
-0.082283
-0.014236
-0.069928
-0.068921
-0.113588
-0.054040
0.057192
0.069429
0.039048
0.042529
0.048609
-0.095589
-0.029668
-0.110468
-0.087641
-0.057162
0.077010
0.355390
0.329349
0.143326
0.061429
-0.020906
-0.062826
-0.011655
-0.062080
-0.029286
0.031712
0.165436
0.392577
0.312478
0.103320
-0.009499
-0.079570
-0.045691
0.003373
-0.039632
-0.018029
-0.027831
0.009624
0.072205
0.038087
-0.026448
-0.033500
-0.076398
-0.018700
0.011365
-0.039671
-0.042394
-0.055706
-0.033879
-0.031192
-0.076030
-0.068563
-0.041289
-0.055473
-0.001995
0.002926
0.048212
0.052797
0.038192
0.043902
0.061157
0.050389
0.061402
0.026121
0.019558
-0.012579
-0.004888
0.018490
0.019737
0.039165
0.032823
0.046943
0.031202
0.053881
0.016377
0.023768
0.003656
-0.000775
0.026360
0.032341
0.026662
0.026382
0.019626
-0.027815
-0.025849
-0.061798
0.026103
0.005943
0.019914
0.030655
0.040596
0.036957
0.029909
0.001649
-0.057690
-0.071421
-0.095901
0.060013
0.004807
-0.015609
0.018474
0.023140
0.002136
-0.020771
-0.030143
-0.082556
-0.079704
-0.109023
0.064380
0.018899
-0.006490
0.017454
0.041694
-0.003718
-0.036291
0.008515
-0.033161
-0.066399
-0.061527
0.082692
0.001574
-0.015081
-0.003762
0.015125
0.009775
-0.003315
0.012223
-0.010252
-0.027967
-0.054602
0.070498
-0.001532
-0.020935
-0.011761
0.000594
0.006646
-0.000707
0.011639
0.002811
-0.017977
-0.044206
0.044326
-0.010812
-0.004601
0.015122
0.023376
0.006385
0.016829
0.023170
0.024321
0.029561
0.005327
0.068561
0.000274
-0.014850
0.007818
0.011959
0.003680
-0.006099
0.017703
0.027525
0.027172
-0.018095
0.052485
-0.052470
-0.046578
-0.010951
-0.037450
-0.042780
-0.008452
0.003163
0.011584
0.004304
-0.002638
0.014406
0.023965
0.022740
0.005759
0.016977
-0.029297
-0.037392
-0.002829
0.001033
0.007209
-0.024652
0.044658
0.026914
0.044892
-0.001087
0.013410
-0.009129
-0.017614
0.001066
0.017281
0.044243
-0.021168
0.064538
0.012421
0.010247
-0.041554
-0.048623
-0.066581
-0.082354
-0.088248
-0.113359
-0.121337
-0.162942
0.026266
0.028995
0.045246
-0.005371
-0.008953
-0.036197
-0.072155
-0.103667
-0.149091
-0.161904
-0.191803
0.056954
0.022803
0.017129
-0.005277
0.002307
-0.044283
-0.082370
-0.106693
-0.166067
-0.173497
-0.175306
0.061708
0.045806
0.041437
0.005997
0.015612
-0.023536
-0.060849
-0.053666
-0.070951
-0.105834
-0.129839
0.108391
0.043863
0.020582
-0.008315
0.022751
-0.007644
-0.044649
-0.010766
-0.024659
-0.061224
-0.087149
0.107847
0.023038
0.035811
-0.014005
0.011089
-0.010130
-0.009578
0.015093
-0.005735
-0.031905
-0.081361
0.062284
0.035926
0.053235
0.011016
0.032773
0.000567
0.020253
0.021782
0.018837
0.012710
-0.029737
0.085926
0.015623
0.021743
-0.008294
0.002704
-0.021647
-0.019026
-0.002449
0.005601
-0.003274
-0.054099
0.057634
0.075254
0.087784
0.055804
0.025913
0.022213
0.052964
0.067212
0.062087
0.052849
0.010612
0.093531
-0.036488
0.006633
-0.039035
-0.011376
-0.046425
-0.054320
-0.044184
-0.039297
-0.015678
-0.079994
-0.000887
-0.005174
0.057395
0.008984
0.041426
0.034439
0.025539
0.067004
0.071632
0.074166
-0.003179
0.042777
-0.079446
-0.022924
-0.073370
-0.044988
-0.048565
-0.035759
-0.012134
-0.048509
-0.056738
-0.129228
0.018896
-0.061152
0.016442
-0.038584
-0.012415
0.002674
0.002848
0.003980
-0.063535
-0.079970
-0.137927
0.067919
-0.055921
-0.000995
-0.043736
0.003706
-0.006279
-0.015918
-0.022687
-0.076706
-0.098460
-0.118419
0.081945
-0.030375
-0.003416
-0.040466
0.023009
-0.010667
-0.013301
0.022443
-0.021227
-0.063703
-0.088583
0.107522
-0.036216
0.014042
-0.035295
0.000967
-0.020226
-0.021738
0.043489
-0.006967
-0.047434
-0.090372
0.085891
-0.040665
0.023663
-0.031084
-0.012088
-0.009390
-0.000821
0.029264
-0.000605
-0.040368
-0.122954
0.032705
-0.039394
0.030981
-0.027901
0.015609
0.003903
0.005600
0.025399
0.010033
-0.016774
-0.102365
0.040128
-0.060751
-0.023034
-0.076838
-0.046185
-0.060841
-0.057857
-0.032848
-0.040964
-0.079069
-0.161947
-0.013746
0.007952
0.046969
-0.012460
-0.021903
-0.012310
-0.007082
0.000069
-0.019512
-0.046956
-0.100823
0.019832
-0.051702
0.013825
0.009051
0.089445
0.153333
0.164391
0.090778
0.000481
-0.096401
-0.112770
-0.215958
-0.090091
-0.013136
-0.032812
0.069824
0.168915
0.222568
0.185295
0.075533
-0.075263
-0.148029
-0.299656
-0.131555
-0.042686
-0.047744
0.103098
0.276284
0.410884
0.464503
0.381028
0.214290
0.032543
-0.171509
-0.197317
-0.130349
-0.147366
-0.024326
0.170728
0.357812
0.500026
0.510460
0.368867
0.146538
-0.132617
-0.244101
-0.186360
-0.245728
-0.174092
-0.012553
0.182126
0.374847
0.526699
0.485690
0.290321
-0.034184
-0.236638
-0.210286
-0.312441
-0.266274
-0.159275
-0.009878
0.188828
0.396077
0.441121
0.349972
0.058513
-0.211461
-0.198396
-0.322669
-0.298105
-0.248086
-0.149810
0.004358
0.210941
0.332289
0.320514
0.120002
-0.165810
-0.131148
-0.283904
-0.293314
-0.280333
-0.205199
-0.096072
0.067599
0.229299
0.265654
0.140162
-0.106213
-0.097966
-0.255514
-0.272204
-0.267574
-0.233498
-0.154583
-0.021000
0.122773
0.192872
0.126712
-0.080761
-0.061498
-0.223116
-0.236528
-0.250723
-0.238211
-0.187362
-0.067559
0.035376
0.105320
0.106687
0.038186
0.049957
-0.128017
-0.164057
-0.182482
-0.207344
-0.196002
-0.136571
-0.032927
0.018685
0.047146
0.039013
0.006431
-0.003171
-0.037971
-0.071477
-0.090699
-0.081190
-0.042634
-0.021245
0.040516
0.110916
0.065689
0.022132
0.006654
-0.032787
-0.070204
-0.097032
-0.087837
-0.078395
-0.039448
0.027749
0.114045
0.077954
0.040220
0.014047
-0.050221
-0.107646
-0.183680
-0.206547
-0.214498
-0.154174
-0.092291
0.034460
0.099361
0.071798
0.053884
0.008350
-0.072502
-0.156741
-0.209077
-0.251396
-0.200310
-0.149674
0.005670
0.119186
0.103546
0.101118
0.046893
-0.010135
-0.098185
-0.187594
-0.255405
-0.233787
-0.178963
-0.053624
0.144334
0.129865
0.124008
0.105178
0.057021
-0.010825
-0.105449
-0.201071
-0.246300
-0.199951
-0.067021
0.145334
0.111433
0.161886
0.134710
0.102600
0.063919
-0.029308
-0.135950
-0.195811
-0.178126
-0.085234
0.146542
0.121788
0.170180
0.151916
0.143263
0.091830
0.047819
-0.051911
-0.124547
-0.139397
-0.077868
0.128356
0.094449
0.146587
0.146127
0.129908
0.108183
0.075738
0.005478
-0.060067
-0.090891
-0.061129
0.126830
0.100438
0.137535
0.147236
0.132630
0.125503
0.098112
0.034286
-0.022507
-0.066664
-0.019906
0.080509
0.078203
0.098934
0.130333
0.136024
0.125464
0.088994
0.053640
0.009287
-0.034635
-0.012395
0.011535
-0.026993
0.014820
-0.042107
-0.084301
-0.079313
-0.041576
0.049234
0.094833
0.120442
0.110267
0.009263
-0.026680
0.012218
-0.042930
-0.106484
-0.121410
-0.083236
0.013401
0.087219
0.154347
0.180490
0.069946
0.013250
0.048007
-0.046881
-0.158024
-0.255933
-0.248932
-0.191156
-0.056851
0.032596
0.168117
0.096598
0.042455
0.090749
0.016355
-0.092534
-0.219940
-0.301568
-0.270331
-0.161095
-0.023735
0.146105
0.127508
0.086952
0.160411
0.117161
0.032041
-0.105476
-0.243555
-0.289236
-0.224644
-0.095393
0.066779
0.107117
0.086135
0.201424
0.161659
0.107319
0.025233
-0.111884
-0.213898
-0.227704
-0.155957
0.011460
0.081602
0.051122
0.188908
0.164515
0.157682
0.102996
0.006531
-0.130534
-0.179658
-0.158729
-0.045654
0.021864
0.014516
0.162260
0.148888
0.165753
0.135547
0.091772
-0.033721
-0.126388
-0.137262
-0.070673
-0.012187
-0.033265
0.112840
0.131835
0.132872
0.113872
0.099227
0.017275
-0.067740
-0.102395
-0.076188
-0.006007
-0.028631
0.116432
0.138851
0.134903
0.132657
0.122918
0.052649
-0.006760
-0.043772
-0.031101
-0.133553
-0.148255
-0.001006
0.038148
0.069331
0.080297
0.087009
0.062819
0.018809
-0.006464
-0.027061
-0.007200
-0.002487
0.021140
0.042320
0.042680
0.050591
0.043187
0.047887
0.040705
0.017596
-0.007736
0.002409
-0.039797
-0.056800
-0.056104
-0.046318
-0.011401
0.011583
0.016674
0.016231
0.027829
0.016569
0.008098
-0.032973
-0.071202
-0.145568
-0.217695
-0.241794
-0.246804
-0.212612
-0.170442
-0.104807
-0.068233
0.066675
0.104067
0.169811
0.218857
0.206963
0.147981
0.072729
0.005271
-0.050857
-0.063342
-0.044545
-0.014027
-0.014668
0.033780
0.116208
0.207665
0.310685
0.348123
0.340597
0.279890
0.170545
0.104940
-0.031470
-0.068976
-0.151203
-0.186802
-0.223522
-0.191062
-0.117233
-0.045734
0.047001
0.084305
0.111865
-0.008071
0.006494
-0.032124
-0.083375
-0.144171
-0.204653
-0.259450
-0.266578
-0.252039
-0.166057
-0.089852
0.045551
0.090298
0.135371
0.171146
0.184035
0.186086
0.150019
0.105459
0.058105
0.006070
-0.026316
-0.022883
-0.026087
0.000229
0.035878
0.035408
0.062692
0.077323
0.106259
0.088842
0.061576
0.019291
-0.031095
-0.055439
-0.067275
-0.076907
-0.086381
-0.091607
-0.076987
-0.054704
-0.033812
-0.012737
-0.027264
0.007270
0.005917
0.007323
0.006166
0.004189
0.018485
-0.022744
-0.029521
-0.021123
-0.014064
-0.001567
-0.022600
-0.032881
-0.011147
-0.008874
-0.019611
-0.003509
-0.006423
0.005125
-0.008627
0.000760
-0.038518
0.032699
-0.021747
-0.042012
-0.054055
-0.066063
-0.027429
-0.015739
-0.018520
-0.014190
0.019551
0.021279
0.047995
0.033042
-0.000874
-0.079965
-0.166177
-0.212810
-0.239109
-0.212418
-0.167614
-0.111055
-0.046682
0.089412
0.148320
0.268723
0.350658
0.374719
0.305189
0.210306
0.104783
0.037077
-0.011139
-0.011450
-0.074002
-0.054599
0.020049
0.130959
0.275625
0.429970
0.489716
0.480174
0.398670
0.247002
0.158845
-0.117281
-0.154464
-0.277289
-0.348427
-0.387117
-0.333210
-0.231474
-0.104513
0.026388
0.094800
0.124926
-0.061278
-0.042847
-0.133369
-0.216904
-0.326513
-0.413489
-0.471986
-0.464951
-0.396873
-0.284977
-0.157445
0.061555
0.106333
0.156981
0.180889
0.170985
0.152332
0.093247
0.030577
-0.043431
-0.089950
-0.099638
0.010079
0.016651
0.056607
0.093043
0.126363
0.143375
0.145873
0.159039
0.126206
0.063715
0.020988
0.023947
-0.002104
-0.009039
-0.020682
-0.029237
-0.015618
0.004838
0.019984
0.027764
0.031152
0.031398
0.016516
0.009371
0.007319
0.000920
0.006614
0.014481
-0.010515
-0.008462
0.003919
0.004306
0.024008
-0.002935
-0.011006
-0.011403
0.001683
-0.003801
0.015656
0.014980
0.014711
0.020659
0.013453
-0.005749
0.003676
-0.017669
-0.025921
-0.022374
-0.014845
0.018643
0.039237
0.029946
0.007706
0.038365
0.016329
0.040219
0.011439
-0.008438
-0.085446
-0.114264
-0.142185
-0.159355
-0.150865
-0.105610
-0.065685
-0.049527
0.053518
0.094099
0.158473
0.193731
0.175254
0.137788
0.050607
0.005151
-0.034888
-0.042717
-0.023074
-0.057433
-0.040842
-0.006684
0.056935
0.139445
0.231334
0.279644
0.281675
0.219555
0.152905
0.093755
-0.093822
-0.091539
-0.163016
-0.200295
-0.237149
-0.199070
-0.137064
-0.067879
0.008993
0.063199
0.069087
-0.047419
-0.016858
-0.068082
-0.089254
-0.154891
-0.189082
-0.257915
-0.266931
-0.237431
-0.166917
-0.125509
0.069370
0.091154
0.120274
0.153034
0.158448
0.154338
0.122127
0.083170
0.023456
-0.015129
-0.061224
0.015564
0.002202
0.029201
0.036106
0.043108
0.062205
0.076507
0.091832
0.087849
0.063277
0.029945
0.016784
-0.024027
-0.021310
-0.047013
-0.055764
-0.031278
-0.012949
-0.011548
0.003092
0.017099
0.021957
-0.004703
-0.004882
-0.017733
-0.007263
0.005671
0.007988
-0.003680
-0.021720
-0.010825
0.001286
0.014252
0.117558
0.037136
0.208172
0.090814
0.040335
-0.015171
-0.046644
-0.080996
-0.137589
-0.202032
-0.108481
0.067514
0.026636
0.191118
0.088645
0.029389
-0.010590
-0.045771
-0.079135
-0.110694
-0.161377
-0.063967
0.144856
0.094354
0.280986
0.175454
0.066272
-0.039643
-0.103152
-0.146335
-0.173754
-0.230097
-0.140169
0.140316
0.133644
0.333987
0.192297
0.049125
-0.066000
-0.126434
-0.146969
-0.168654
-0.231228
-0.129771
0.166435
0.158542
0.369719
0.220966
0.052427
-0.073346
-0.124075
-0.160324
-0.199495
-0.254702
-0.150885
0.145402
0.154470
0.361517
0.248018
0.064723
-0.069654
-0.116312
-0.181862
-0.217785
-0.270424
-0.145014
0.110131
0.136902
0.358979
0.238503
0.092612
-0.042677
-0.108655
-0.175585
-0.211979
-0.264715
-0.162140
0.075618
0.093341
0.324017
0.231462
0.129875
0.013044
-0.076918
-0.148457
-0.192902
-0.259397
-0.149475
0.068571
0.052432
0.284443
0.201266
0.140343
0.055712
-0.025479
-0.098378
-0.169770
-0.232733
-0.151270
0.101172
0.041484
0.245218
0.170524
0.132741
0.085691
0.005077
-0.061830
-0.142890
-0.233735
-0.159145
0.051764
-0.028294
0.155629
0.077727
0.087453
0.057177
0.022374
-0.032256
-0.118607
-0.223652
-0.148948
-0.012059
-0.036085
-0.015566
-0.022760
-0.012693
-0.009481
0.001429
0.027445
0.019368
0.027825
0.030691
0.000691
-0.001180
-0.005741
-0.012896
0.002014
0.020895
0.012902
0.014125
0.028857
0.041691
0.025965
-0.004274
-0.025682
-0.018439
-0.027033
-0.015315
-0.005252
-0.005990
-0.000140
-0.012217
0.018152
0.007015
0.003145
-0.018785
-0.018659
-0.009507
0.015341
-0.005527
0.006138
-0.002391
0.004921
0.008108
0.025940
0.003767
-0.009656
-0.023796
-0.012090
0.006307
0.019420
0.007712
0.008360
0.012588
-0.005296
0.012715
0.004454
-0.016572
-0.037629
-0.019865
0.003358
0.030616
0.022021
-0.002392
-0.004582
-0.010558
0.004849
-0.005199
-0.015333
-0.025204
-0.028578
0.010947
0.031663
0.029571
-0.001912
-0.013247
0.004393
-0.007395
-0.004544
-0.001366
-0.024786
-0.030572
-0.008948
0.025904
0.014225
-0.004705
0.003945
0.006534
-0.012658
-0.014626
-0.013043
0.003117
-0.008691
-0.003811
0.009113
0.024752
0.003937
-0.010678
0.020616
0.008509
-0.034494
-0.012029
-0.017420
-0.021605
-0.006489
-0.007162
0.004194
0.011549
-0.018309
0.012639
-0.012177
-0.011993
-0.032991
-0.000246
-0.017009
0.000484
0.010777
0.013513
0.027800
0.008681
0.024438
0.012370
-0.091884
-0.060386
-0.163091
-0.086255
-0.019647
-0.011423
0.024089
0.080754
0.112060
0.178231
0.093924
-0.064407
-0.015502
-0.168873
-0.086769
-0.031755
0.025293
0.042024
0.083013
0.089825
0.134517
0.051537
-0.137447
-0.090634
-0.248409
-0.154325
-0.050792
0.030040
0.084580
0.132096
0.157216
0.209048
0.111343
-0.121385
-0.117950
-0.281368
-0.164108
-0.037975
0.044674
0.105146
0.144596
0.179831
0.219272
0.108842
-0.153060
-0.129570
-0.324612
-0.198610
-0.060438
0.030636
0.101036
0.163155
0.192657
0.237064
0.126513
-0.135990
-0.135211
-0.332088
-0.216301
-0.072183
0.031598
0.110252
0.169344
0.201231
0.250667
0.147615
-0.103444
-0.111204
-0.319438
-0.230776
-0.097481
0.019617
0.104743
0.145254
0.200437
0.265361
0.163691
-0.071322
-0.070966
-0.275361
-0.238713
-0.135935
-0.028317
0.047507
0.123430
0.186429
0.253316
0.154054
-0.058476
-0.036645
-0.228456
-0.201343
-0.155177
-0.068246
0.009055
0.094683
0.151386
0.236877
0.172570
-0.075855
-0.023069
-0.200244
-0.173264
-0.152415
-0.093560
-0.021233
0.067471
0.126968
0.229985
0.160010
-0.003966
0.035450
-0.096839
-0.080536
-0.060526
-0.056532
-0.043400
0.029653
0.094056
0.183023
0.127076
0.069611
-0.037409
0.081973
-0.013796
0.023303
-0.003520
-0.024484
-0.022597
0.002480
-0.074604
-0.012423
-0.008348
-0.059558
0.005311
-0.019816
0.004635
0.005874
0.005763
-0.007580
0.028191
-0.006877
0.014832
0.085582
-0.002599
0.069653
0.011290
0.012257
0.006941
-0.005055
-0.038629
-0.001273
-0.064254
-0.029022
0.038573
-0.046468
0.038092
-0.009956
0.006064
0.013003
-0.000955
-0.015972
0.002796
-0.036962
0.004579
0.062473
-0.032435
0.043605
-0.001867
0.007934
0.003263
-0.019384
-0.043825
0.000920
-0.045391
-0.026842
0.065007
-0.031066
0.067502
0.013595
0.005843
-0.005854
-0.017700
-0.019037
0.001877
-0.041856
-0.025098
0.058529
-0.039329
0.045443
0.003858
0.011344
-0.013942
-0.009903
-0.029583
0.002715
-0.046796
-0.030641
0.068195
-0.017659
0.054504
0.002702
0.018645
-0.007431
-0.011074
-0.021048
-0.003374
-0.048445
-0.019160
0.049114
-0.032715
0.046481
-0.007430
0.012272
0.006966
-0.011657
-0.028422
0.000460
-0.041929
-0.009424
0.069947
-0.008080
0.059887
0.009991
0.029585
-0.005139
-0.020186
-0.015803
0.010674
-0.041124
-0.013763
0.019273
-0.053270
0.065074
-0.009158
0.025209
-0.000193
-0.006543
-0.022187
0.033882
-0.054409
-0.012364
0.138137
-0.012397
0.139974
0.015055
0.015447
-0.019891
-0.060822
-0.063854
-0.056432
-0.130758
0.010463
0.076634
-0.046479
0.067431
0.005592
0.022473
0.015019
-0.016818
-0.027700
-0.004234
-0.071182
0.039762
0.185287
0.013592
0.122085
0.032119
0.032348
-0.010314
-0.048778
-0.086288
-0.084268
-0.167131
-0.066858
0.124053
-0.020590
0.108981
0.030292
0.031571
0.025867
-0.020829
-0.048191
-0.042803
-0.116892
-0.034788
0.164769
-0.004730
0.115896
0.050878
0.023145
0.012089
-0.017225
-0.069888
-0.051329
-0.142591
-0.072551
0.151872
-0.009058
0.125866
0.039413
0.032288
0.009276
-0.021377
-0.056809
-0.058565
-0.147112
-0.073924
0.137671
-0.006620
0.111331
0.036198
0.035400
-0.004812
-0.004926
-0.051369
-0.060836
-0.134831
-0.083935
0.144603
-0.010745
0.118917
0.055680
0.041441
0.008855
-0.010355
-0.042693
-0.060731
-0.128356
-0.071008
0.089624
-0.027716
0.094625
0.031554
0.040590
0.016733
-0.014155
-0.024416
-0.040142
-0.130496
-0.051323
0.107222
-0.027833
0.103728
0.026222
0.035002
0.014561
-0.025019
-0.049612
-0.044754
-0.137389
-0.072032
0.048415
-0.071038
0.110865
0.022681
0.047424
0.035277
0.017126
-0.011708
0.000313
-0.104821
-0.033604
0.106773
-0.028746
0.123054
0.011954
0.014699
-0.035073
-0.061689
-0.050423
-0.030290
-0.120498
0.030579
0.053872
-0.061551
0.045602
0.005149
0.010763
-0.002218
-0.013562
-0.021055
0.022644
-0.050184
0.069510
0.153190
-0.009258
0.103888
0.016014
0.015363
-0.023563
-0.036671
-0.056857
-0.039531
-0.144339
-0.030956
0.081338
-0.041011
0.094585
0.031011
0.020057
0.002083
-0.016702
-0.032143
-0.015593
-0.100038
0.016145
0.120364
-0.036308
0.094352
0.031818
0.015024
0.001096
-0.020750
-0.050538
-0.022882
-0.112418
-0.018418
0.111956
-0.042642
0.108005
0.033548
0.017287
-0.001990
-0.018881
-0.042677
-0.016086
-0.120317
-0.030733
0.093062
-0.047996
0.087681
0.033640
0.022862
-0.008576
-0.000930
-0.030445
-0.022707
-0.125553
-0.026452
0.106571
-0.025933
0.103449
0.045575
0.037157
0.005313
-0.017381
-0.018763
-0.022661
-0.127202
-0.030487
0.064069
-0.043612
0.089116
0.026892
0.026189
0.015225
-0.018320
-0.010122
-0.030389
-0.119402
-0.026050
0.118545
-0.021380
0.112033
0.035367
0.021014
0.001265
-0.021708
-0.023176
-0.024206
-0.129675
-0.047589
0.064252
-0.073661
0.101981
0.015965
0.027144
0.011274
-0.007410
-0.029245
-0.000810
-0.124782
-0.032167
-0.023785
-0.042332
0.006651
0.019794
0.064834
0.089310
0.093045
0.060190
0.003832
-0.020958
-0.048241
-0.023014
-0.028053
0.011444
0.010845
0.027247
0.014460
-0.002228
-0.029588
-0.041370
-0.030523
-0.013625
-0.002904
-0.023989
0.044508
0.043320
0.042771
0.034813
0.009505
-0.043376
-0.065602
-0.054727
0.011081
-0.008080
-0.017723
0.054771
0.048621
0.037668
0.014574
-0.029710
-0.068051
-0.074727
-0.033055
0.053474
0.015340
0.014491
0.085185
0.031647
0.013236
0.001600
-0.065632
-0.094689
-0.056952
-0.000620
0.069870
0.038724
0.033563
0.064742
0.003287
-0.015647
-0.051499
-0.122866
-0.117861
-0.010363
0.035150
0.065190
0.050865
0.008129
0.034764
-0.013456
-0.052446
-0.103252
-0.087551
-0.023017
0.031442
0.073909
0.049553
0.057336
-0.014954
-0.006868
-0.044639
-0.089608
-0.086227
-0.028888
0.018795
0.051649
0.076367
0.025070
0.033145
-0.026984
-0.013411
-0.055502
-0.041457
0.014140
0.014372
0.013510
0.055203
0.053386
-0.010646
0.001574
-0.026452
-0.010228
-0.025158
-0.033291
0.007788
-0.016728
0.021480
0.055059
0.050153
-0.020950
-0.037115
-0.012650
0.013677
-0.018689
0.019578
0.059186
0.035972
0.041851
0.022756
-0.000126
-0.096974
-0.026130
-0.043533
0.041872
0.078184
0.114790
0.160746
0.134236
0.058786
-0.016570
-0.067274
-0.098499
-0.028614
-0.019096
0.055027
0.088222
0.094021
0.081855
0.013729
-0.068895
-0.113786
-0.118003
-0.082000
0.024582
0.041981
0.135589
0.148324
0.145104
0.096167
-0.005424
-0.111565
-0.161618
-0.135173
-0.035557
0.066108
0.048121
0.161825
0.147971
0.086866
0.006537
-0.096198
-0.185178
-0.176521
-0.089448
0.070272
0.113642
0.088246
0.182082
0.095587
0.016741
-0.073178
-0.207524
-0.252518
-0.149423
-0.013541
0.118601
0.121122
0.087051
0.105488
-0.009350
-0.096675
-0.213362
-0.287595
-0.221054
-0.044048
0.092721
0.158550
0.110418
0.024945
0.009707
-0.076531
-0.197093
-0.269706
-0.215135
-0.043234
0.093437
0.185097
0.170317
0.044141
-0.051951
-0.071561
-0.154687
-0.244767
-0.173304
-0.034792
0.069529
0.156757
0.185339
0.131340
-0.014702
-0.103116
-0.105606
-0.151726
-0.124512
-0.013958
0.057792
0.107258
0.161858
0.144114
0.064855
-0.078740
-0.095410
-0.078359
-0.088364
-0.039344
0.035790
0.065204
0.107340
0.133225
0.119887
0.014400
-0.112085
-0.060470
-0.021225
-0.024098
0.038354
0.121773
0.114228
0.100912
0.086566
0.038202
-0.092471
-0.036972
-0.050836
-0.005015
0.006458
0.042675
0.093998
0.094333
0.054853
0.015301
-0.019672
-0.045499
-0.048253
-0.032272
0.008907
0.021138
0.014676
0.030876
0.007698
-0.025852
-0.036320
-0.061424
-0.039072
0.002738
-0.002134
0.058136
0.073335
0.068592
0.055300
0.019644
-0.032149
-0.064022
-0.069345
-0.006179
0.020042
0.007933
0.075034
0.073393
0.048838
0.016351
-0.019587
-0.071541
-0.090557
-0.046315
0.047886
0.053051
0.031536
0.094686
0.035945
0.015741
-0.020073
-0.094025
-0.120481
-0.081985
-0.018788
0.065497
0.066174
0.036165
0.063263
0.001351
-0.033877
-0.107218
-0.148283
-0.129943
-0.025318
0.028628
0.082174
0.058466
0.005354
0.021517
-0.007394
-0.094800
-0.142419
-0.104723
-0.036932
0.028895
0.074371
0.085566
0.042547
-0.030002
-0.025299
-0.074218
-0.124648
-0.088536
-0.015631
0.030264
0.044507
0.081778
0.064171
0.008410
-0.054914
-0.031374
-0.062448
-0.057118
0.016351
0.017989
0.017041
0.053613
0.058501
0.017569
-0.038001
-0.034982
-0.026713
-0.030099
-0.026805
0.021347
0.003605
0.040759
0.069008
0.079329
0.024151
-0.047501
-0.021393
0.007448
-0.002673
0.026330
0.087552
0.056205
0.069742
0.044321
0.028602
-0.059717
-0.048040
-0.062901
-0.044072
-0.083467
-0.074476
-0.036731
-0.006413
-0.002969
-0.016776
0.011753
-0.007765
-0.002879
-0.025095
-0.027647
-0.084251
-0.066836
-0.018022
-0.024189
-0.045024
-0.045391
0.017885
0.015752
-0.020795
-0.026360
0.006431
-0.056014
-0.112742
-0.086609
-0.080726
-0.041225
-0.001198
0.035147
0.021936
-0.003014
-0.002081
0.013908
-0.072825
-0.197758
-0.172811
-0.040346
0.118329
0.173482
0.163441
0.063276
-0.020844
-0.001043
-0.061705
-0.201915
-0.309933
-0.215827
0.017203
0.194913
0.222369
0.149819
0.045222
-0.052017
-0.052935
-0.078447
-0.224352
-0.313300
-0.233690
-0.042328
0.087935
0.058752
0.005126
-0.046643
-0.031361
0.013546
0.071894
-0.050135
-0.257868
-0.265774
-0.152024
-0.108474
-0.107899
-0.087978
-0.084879
0.002217
0.070323
0.164640
0.056710
-0.179275
-0.193955
-0.106196
-0.092626
-0.092359
-0.067378
-0.046447
0.037574
0.073572
0.069753
0.002248
-0.137854
-0.104494
0.046300
0.102574
0.113833
0.104754
0.041353
0.052995
0.026157
-0.015891
-0.033022
-0.085231
-0.014310
0.123038
0.159639
0.184807
0.175109
0.094829
0.068356
0.035748
0.020796
0.025067
0.025634
0.075934
0.104714
0.117574
0.121212
0.156623
0.118650
0.037485
0.020966
0.048373
0.008741
0.011678
0.014241
0.040315
0.026778
0.002242
0.032117
-0.036909
0.053602
0.042069
0.069503
0.025686
0.024246
0.056213
0.022568
0.004276
-0.039515
0.035001
-0.003794
0.057346
0.057484
0.110794
0.076925
0.047372
0.046699
0.008149
-0.005204
-0.030210
0.017728
-0.005680
0.056242
0.069029
0.119814
0.076819
-0.011165
-0.032913
0.022897
0.076703
0.083352
0.082619
-0.007019
0.028676
0.070920
0.076624
-0.019378
-0.076945
-0.031007
0.090962
0.164429
0.131485
0.073648
-0.017805
-0.015808
-0.004184
0.029733
-0.043449
-0.076319
-0.009627
0.103150
0.125168
0.065776
0.017651
-0.045034
-0.027536
0.003907
0.110401
0.058115
-0.054574
-0.041106
0.002654
-0.004708
-0.037517
-0.036049
-0.041136
-0.022605
0.029083
0.147513
0.095402
-0.023466
-0.001839
0.030106
-0.011721
-0.049347
-0.030824
-0.032840
0.002255
0.024017
0.061527
0.022297
-0.031295
0.022596
0.094414
0.087257
0.064506
0.061200
-0.005319
0.013193
-0.010491
-0.003704
0.011904
-0.006380
0.020623
0.093038
0.060765
0.043486
0.060298
0.002349
-0.021105
-0.040152
-0.009462
0.002501
-0.000216
0.012976
-0.012468
-0.065456
-0.075551
-0.021946
-0.058433
-0.046228
-0.062973
-0.054688
-0.112969
-0.121372
-0.112348
-0.077193
-0.074164
-0.059235
-0.030371
-0.096756
-0.005054
-0.035775
-0.033241
-0.095581
-0.107817
-0.055105
-0.077326
-0.096560
-0.099161
-0.023003
-0.054685
0.024295
0.016746
0.027864
-0.020290
-0.045512
-0.042091
-0.060330
-0.046803
-0.025290
0.022966
-0.029836
0.026330
0.038807
0.061205
0.004264
-0.091968
-0.088712
-0.022297
0.038792
0.065633
0.076914
-0.035720
0.025631
0.035926
0.023594
-0.044775
-0.106599
-0.050255
0.081567
0.144577
0.115549
0.069966
-0.048974
-0.026415
-0.007706
-0.004681
-0.048574
-0.086641
-0.018271
0.103602
0.098363
0.039260
-0.010760
-0.083421
-0.013269
0.017493
0.074290
0.048798
-0.040119
-0.025590
0.031944
0.000941
-0.041549
-0.041890
-0.074773
-0.000837
0.032992
0.106521
0.082898
-0.013532
0.025596
0.056823
0.009663
-0.039489
-0.018572
-0.075694
0.017856
0.034556
0.043217
0.027403
-0.015059
0.046969
0.114524
0.083071
0.050354
0.056796
-0.027235
0.035839
-0.005699
-0.016917
-0.007070
0.001461
0.056407
0.092630
0.039728
0.008947
0.041804
-0.040763
0.012882
-0.017589
-0.008337
0.009585
0.019706
0.016392
-0.013559
-0.080407
-0.090148
-0.037440
-0.083227
0.061025
-0.167213
0.177156
0.018788
-0.104343
0.064287
0.036998
-0.009611
-0.028094
0.136164
-0.080510
0.046820
-0.149789
0.143553
-0.133962
0.068784
-0.020688
-0.126796
0.126833
-0.137946
0.109424
-0.088276
0.031611
-0.095238
0.263728
-0.218490
0.158341
-0.000986
-0.090228
0.192654
-0.090484
0.089087
-0.025663
0.023414
-0.165787
0.216708
-0.133816
0.032788
-0.044496
-0.020400
0.082306
-0.096091
0.132161
-0.087881
0.014584
-0.006997
0.030567
-0.044575
0.065876
-0.072576
-0.026002
0.080185
-0.077753
0.077285
-0.054959
-0.012043
-0.069422
0.137465
-0.018693
-0.044855
-0.023227
0.074001
-0.062398
0.089221
-0.017303
-0.003441
0.089046
-0.176460
0.116232
0.050084
-0.081933
-0.029898
0.106136
-0.125919
0.077513
0.042476
-0.086922
-0.022280
0.020537
-0.004994
-0.062539
0.096169
-0.120123
0.041367
0.019615
-0.047525
0.031019
-0.020147
-0.062017
0.033415
0.082576
-0.109989
0.073954
-0.027940
-0.071860
0.016045
0.061887
-0.002149
-0.014220
0.097586
-0.080595
0.103348
0.137694
-0.113513
0.172058
-0.014911
-0.002212
0.097568
0.039737
0.018545
-0.059910
0.048473
-0.125751
0.097595
-0.069837
-0.074713
0.021502
-0.025349
-0.043643
0.022055
-0.058641
0.080565
-0.185172
0.175660
0.025194
-0.131854
0.065220
0.037968
-0.019666
-0.065941
0.119438
-0.039626
0.058513
-0.139719
0.154117
-0.136513
0.093836
0.001847
-0.128204
0.149141
-0.142324
0.098567
-0.036213
0.029516
-0.103562
0.231912
-0.255543
0.161250
-0.007222
-0.111384
0.188111
-0.121061
0.036977
0.015366
0.043957
-0.158934
0.209677
-0.132676
0.058871
-0.011763
-0.030198
0.069870
-0.119676
0.106581
-0.040012
0.023512
-0.015354
-0.011302
-0.059940
0.105804
-0.067171
-0.041939
0.087712
-0.086753
0.045155
-0.002894
0.008467
-0.090794
0.103111
-0.013564
-0.021189
-0.018738
0.071091
-0.079932
0.070309
-0.057065
0.023339
0.109239
-0.173846
0.091411
0.075140
-0.090518
-0.021524
0.113094
-0.131531
0.055957
0.032020
-0.036984
-0.017047
0.041913
-0.023621
-0.053482
0.110443
-0.115024
0.065136
0.017924
-0.052652
-0.015520
0.052241
-0.066764
0.039054
0.066987
-0.136803
0.107762
-0.019645
-0.063811
0.037358
0.060780
-0.048843
0.013070
0.069913
-0.105760
0.037433
0.086183
-0.149849
0.147077
-0.058545
-0.025968
0.051680
-0.027426
-0.002742
-0.049024
0.079268
-0.128059
0.115952
-0.059532
-0.048569
0.059923
-0.012494
-0.038016
0.027680
0.003092
0.047601
-0.169644
0.117325
0.017988
-0.115824
0.070007
0.041243
-0.033805
-0.082416
0.083027
-0.028383
0.058487
-0.095110
0.105136
-0.097322
0.085627
0.006293
-0.074719
0.149648
-0.142694
0.072123
-0.019036
0.016209
-0.122316
0.156206
-0.219842
0.147005
-0.003937
-0.104955
0.143288
-0.128244
0.006661
0.024191
0.028492
-0.151883
0.139836
-0.090230
0.075101
-0.021668
-0.036388
0.038195
-0.119727
0.098136
-0.038956
0.045337
0.024167
-0.055052
-0.037108
0.139740
-0.030341
-0.020411
0.073436
-0.089703
0.053343
-0.000593
-0.005381
-0.058883
0.040090
-0.001831
-0.004190
-0.010478
0.074874
-0.099876
0.038439
-0.069510
0.046161
0.101735
-0.157154
0.022846
0.088209
-0.069364
-0.027373
0.123928
-0.144313
0.047860
0.033135
-0.005803
0.002052
0.088413
-0.059482
-0.020978
0.145467
-0.098549
0.086844
0.036341
-0.047047
-0.026684
0.068495
-0.070152
0.051229
0.010597
-0.125239
0.112089
-0.013962
-0.056426
0.028377
0.017414
-0.103243
0.045844
0.038233
-0.120084
-0.046596
0.024632
-0.152671
0.102497
-0.088492
-0.057289
0.001848
-0.098180
-0.005350
0.002587
0.146420
-0.107260
0.126626
-0.004041
-0.016740
0.092256
0.028691
-0.021503
0.031817
0.039488
0.016677
-0.001465
0.019743
-0.052421
0.002758
0.025773
-0.133517
0.137682
-0.000212
-0.038704
-0.025242
0.047770
-0.049687
0.086469
-0.037794
-0.041720
0.099348
-0.189843
0.169156
-0.011215
-0.018834
-0.000807
0.048406
-0.126448
0.135996
-0.068575
-0.038240
0.100281
-0.252375
0.258745
-0.037803
-0.051614
0.001267
0.061460
-0.144452
0.214410
-0.120518
0.010621
0.095168
-0.313243
0.305607
-0.031315
-0.053804
0.004577
0.055409
-0.154522
0.233550
-0.183091
0.095676
0.062039
-0.377261
0.354426
-0.006308
-0.099872
0.017067
0.028666
-0.123300
0.247802
-0.248679
0.179479
0.053448
-0.433179
0.388538
0.016619
-0.143584
0.041699
0.017090
-0.106832
0.261567
-0.297030
0.174779
0.091473
-0.472999
0.374347
0.099305
-0.200022
0.052709
0.015383
-0.070756
0.235795
-0.251716
0.131093
0.182345
-0.476789
0.285730
0.170664
-0.203284
0.056871
0.000296
-0.076693
0.189536
-0.195374
0.041831
0.200776
-0.408317
0.162698
0.206745
-0.190449
0.017554
-0.013455
-0.039230
0.112934
-0.106548
-0.013776
0.184748
-0.296164
0.062609
0.200930
-0.130304
-0.005160
0.016411
-0.006882
0.054667
-0.014825
-0.048784
0.129744
-0.172824
-0.014455
0.167836
-0.049356
-0.033798
0.016074
-0.065129
0.031066
-0.028775
0.031968
0.063551
-0.147774
0.109352
-0.008892
-0.030781
0.009818
0.064218
-0.119284
0.099836
-0.023976
-0.019754
0.146910
-0.211782
0.160139
-0.032158
-0.036956
0.036293
0.066750
-0.196433
0.155796
-0.062100
-0.020759
0.164218
-0.286209
0.239217
-0.051857
-0.078206
0.042280
0.080755
-0.230709
0.200962
-0.128317
0.054570
0.151953
-0.353255
0.320476
-0.081284
-0.090912
0.051209
0.089838
-0.220193
0.227890
-0.228728
0.160211
0.121272
-0.413767
0.365903
-0.050180
-0.135580
0.070948
0.075579
-0.193545
0.238530
-0.309975
0.258727
0.120282
-0.474217
0.406997
-0.004958
-0.199534
0.087247
0.065119
-0.171879
0.229511
-0.341237
0.263361
0.159876
-0.534841
0.374625
0.068630
-0.254851
0.116392
0.058409
-0.142093
0.216173
-0.317893
0.221402
0.249780
-0.515815
0.283542
0.157768
-0.261692
0.102726
0.051316
-0.117772
0.161252
-0.232596
0.092252
0.281341
-0.446789
0.158504
0.209278
-0.216316
0.061622
0.031127
-0.095137
0.087599
-0.129628
0.024214
0.251625
-0.327027
0.053608
0.201957
-0.161984
0.013249
0.047372
-0.057192
0.025783
-0.043587
-0.015843
0.177295
-0.170043
-0.036100
0.170824
-0.061596
-0.010987
0.028792
-0.056398
0.010227
-0.026022
0.057533
0.053442
-0.099137
0.083672
-0.023450
-0.011718
-0.007735
0.060002
-0.109250
0.055046
-0.038004
-0.004342
0.117181
-0.159768
0.117268
-0.066305
-0.009222
0.022465
0.082234
-0.163827
0.092267
-0.052115
-0.004061
0.144256
-0.208753
0.187787
-0.102854
-0.032364
0.033662
0.113428
-0.171961
0.134217
-0.128215
0.047620
0.158861
-0.238875
0.224218
-0.124415
-0.026071
0.051649
0.110206
-0.179030
0.143896
-0.206579
0.123600
0.138935
-0.261759
0.269334
-0.123944
-0.075183
0.081477
0.102851
-0.160804
0.182777
-0.268852
0.176642
0.134733
-0.299856
0.292912
-0.101029
-0.121031
0.099945
0.085393
-0.153874
0.174218
-0.294770
0.168625
0.158303
-0.320337
0.269261
-0.048935
-0.177507
0.128842
0.070017
-0.128117
0.178016
-0.253274
0.099769
0.230305
-0.328928
0.189070
0.024067
-0.195793
0.113999
0.062323
-0.115690
0.130898
-0.179135
0.019622
0.231109
-0.260771
0.117414
0.074554
-0.174991
0.086827
0.056545
-0.081840
0.080021
-0.100529
-0.030069
0.209659
-0.179478
0.038405
0.087406
-0.143629
0.044941
0.045579
-0.062827
0.010449
-0.036349
-0.039429
0.151549
-0.092972
-0.012375
0.095702
-0.065750
-0.015978
0.023077
0.074144
0.120498
0.144156
0.133398
0.106009
0.069819
0.053149
0.028986
0.023624
0.042222
-0.096854
-0.046428
-0.035228
0.048778
0.105837
0.147616
0.140815
0.107999
0.074635
0.055411
0.056016
-0.109437
-0.094750
-0.200058
-0.192881
-0.131264
-0.013885
0.062411
0.090631
0.083933
0.049014
0.052359
-0.021700
0.011635
-0.105035
-0.195160
-0.303558
-0.328441
-0.254537
-0.122295
-0.024206
0.004084
0.010362
0.028786
0.072599
0.072424
0.072024
-0.010908
-0.125878
-0.211402
-0.204413
-0.139128
-0.071093
-0.033110
0.037882
0.038214
0.071012
0.117567
0.144747
0.121179
0.061693
-0.009946
-0.047805
-0.029583
-0.053671
0.024019
-0.002024
0.000105
0.029099
0.054690
0.059864
0.049769
0.015172
-0.020845
-0.032446
-0.052864
-0.004469
-0.000196
0.016118
0.016214
0.008584
0.028725
0.027360
0.020840
0.001333
-0.019775
-0.060159
0.000465
-0.007095
-0.000447
0.011092
0.007710
0.009302
0.026726
0.036178
0.017673
-0.006420
-0.022646
0.019510
0.004742
-0.004520
-0.008608
-0.000336
0.024270
0.036238
0.024495
0.033842
0.032582
0.004076
0.006715
-0.010523
-0.002399
-0.000734
-0.008161
-0.008856
-0.004415
0.000645
0.011347
0.024771
0.041321
0.029643
0.099370
0.137875
0.185264
0.173177
0.150985
0.112131
0.084812
0.066866
0.024741
0.066914
-0.102880
-0.063434
-0.045847
0.038076
0.115581
0.196108
0.178950
0.136986
0.113212
0.073654
0.086622
-0.131649
-0.147745
-0.268803
-0.270092
-0.199463
-0.069202
0.040000
0.074825
0.082971
0.028277
0.046602
-0.012438
-0.003733
-0.142637
-0.263673
-0.410486
-0.423603
-0.373658
-0.210763
-0.091218
-0.044560
-0.024786
0.042685
0.101115
0.087040
0.090081
-0.023089
-0.167896
-0.282006
-0.290079
-0.205149
-0.143525
-0.079501
0.055192
0.045991
0.090967
0.159471
0.187113
0.170484
0.075533
-0.016695
-0.077888
-0.086894
-0.082272
0.056284
0.022294
0.032583
0.059931
0.080433
0.113715
0.101867
0.042412
0.002730
-0.028563
-0.056274
0.033919
0.021256
0.035556
0.030889
0.042066
0.059806
0.075417
0.055637
0.031348
-0.002739
-0.016279
0.028305
-0.001745
0.020494
0.028258
0.018436
0.033518
0.053372
0.061808
0.053859
0.017102
0.000226
0.022860
-0.001353
-0.004247
0.004717
0.016356
0.024874
0.038782
0.048506
0.041895
0.033648
0.033500
-0.005033
-0.012022
-0.022086
-0.018686
-0.018916
-0.011837
-0.020544
-0.007446
-0.001110
0.017308
0.039436
0.012761
0.040054
0.054927
0.087361
0.065190
0.047532
0.024051
0.009518
0.011788
-0.009704
0.025204
-0.071460
-0.024172
-0.033496
0.020575
0.067495
0.109467
0.095558
0.069174
0.042554
0.040123
0.041732
-0.064221
-0.051600
-0.136798
-0.125741
-0.080144
0.013363
0.075661
0.080481
0.069878
0.023750
0.037534
-0.003395
0.010636
-0.055776
-0.097077
-0.189231
-0.215508
-0.169733
-0.081662
-0.013172
-0.020520
-0.011893
0.002272
0.049062
0.056331
0.076734
0.024645
-0.045902
-0.117683
-0.131357
-0.089180
-0.046803
-0.034738
0.020492
0.000326
0.018408
0.056298
0.080578
0.101164
0.070048
0.012886
-0.022352
-0.005743
-0.026242
0.021925
-0.013973
-0.018313
-0.012910
-0.008386
-0.001711
0.014384
-0.001317
-0.009907
-0.019889
-0.022726
0.008128
-0.001032
0.003839
-0.002184
-0.007157
-0.005760
0.008047
0.014002
0.002013
-0.010347
-0.024483
0.011178
0.003427
0.013251
0.019255
0.004887
0.009466
0.011662
0.018390
0.006604
0.000873
0.005928
0.026395
0.000717
0.003366
0.004899
0.015451
0.025917
0.032553
0.020422
0.033866
0.022281
0.014508
-0.002799
-0.007519
-0.007162
-0.004971
-0.009059
0.004793
-0.001640
-0.007691
-0.001877
0.020413
0.020705
0.065673
0.062225
-0.037437
-0.087127
-0.179009
-0.190251
-0.081792
-0.014118
0.029427
0.064927
0.106520
0.074491
0.059348
-0.033898
-0.080068
-0.120628
-0.079862
-0.006949
0.045287
0.104462
0.111901
0.081596
0.012650
-0.017703
-0.155429
-0.186847
-0.185040
-0.130496
-0.010151
0.121930
0.180131
0.117166
0.051001
-0.003794
-0.035515
-0.162125
-0.134099
-0.134748
-0.062296
0.148048
0.265744
0.199268
0.057907
-0.021984
-0.045283
-0.076213
-0.167308
-0.135750
-0.114670
0.065859
0.297420
0.280869
0.111519
-0.025569
-0.113043
-0.112342
-0.086103
-0.129804
-0.080292
0.003606
0.273485
0.384143
0.201717
0.001690
-0.092942
-0.169157
-0.118585
-0.062459
-0.077882
0.008123
0.162771
0.387172
0.299242
0.044141
-0.084871
-0.156049
-0.177229
-0.086469
-0.013261
-0.004268
0.107972
0.271535
0.315068
0.100212
-0.066441
-0.152822
-0.194656
-0.128774
-0.033420
0.036584
0.060441
0.168873
0.241167
0.137120
-0.067861
-0.176433
-0.191553
-0.172961
-0.049220
0.006630
0.054168
0.095534
0.166191
0.127965
-0.017055
-0.137889
-0.203900
-0.191628
-0.132274
0.012342
0.066786
0.081812
0.114395
0.110883
0.014068
-0.147963
-0.203023
-0.186818
-0.117924
-0.013258
0.118619
0.006512
0.024901
-0.019949
-0.038549
-0.094045
-0.070687
0.001939
0.032744
0.018626
0.029281
0.038329
0.012178
0.016328
-0.012211
-0.034398
-0.049352
-0.004810
0.032236
0.026626
0.034528
0.042470
0.005964
0.004748
-0.005582
-0.073174
-0.078657
-0.069936
-0.036226
0.023732
0.089493
0.094303
0.041205
-0.009326
-0.002324
-0.004002
-0.080299
-0.040510
-0.043509
-0.001328
0.108146
0.182298
0.093625
-0.008542
-0.044328
-0.002876
-0.024193
-0.066441
-0.043836
-0.052374
0.041010
0.193733
0.149380
0.000140
-0.046716
-0.100177
-0.064131
-0.038979
-0.063147
-0.028166
0.000378
0.173242
0.222898
0.049395
-0.069735
-0.085190
-0.130169
-0.052765
-0.009309
-0.022134
-0.004007
0.082320
0.239188
0.142858
-0.051150
-0.108781
-0.107039
-0.069985
-0.017554
-0.000645
-0.012473
0.054988
0.131358
0.158989
-0.007063
-0.081199
-0.119560
-0.119985
-0.021204
-0.000595
0.022500
0.007229
0.080255
0.117380
0.030830
-0.089698
-0.127768
-0.100425
-0.082859
0.049916
0.016876
0.019950
0.032670
0.077016
0.050802
-0.051843
-0.096423
-0.100109
-0.090550
-0.041643
0.058436
0.058225
0.015530
0.038062
0.037095
-0.038757
-0.105635
-0.097809
-0.064148
-0.017772
0.044565
0.151001
-0.015516
0.010761
-0.016542
-0.015775
-0.040952
-0.039418
0.004528
0.011533
-0.013934
-0.001353
0.016862
-0.004542
0.002025
0.007227
-0.000195
-0.006856
0.009455
0.017086
-0.012447
-0.022969
0.011750
0.007329
0.008685
0.001401
-0.019517
-0.020595
-0.012913
-0.005908
-0.006015
0.013567
0.016900
0.015605
0.017628
0.012900
0.002006
-0.018926
0.018114
0.013994
-0.017917
0.010385
0.060815
0.010418
-0.004137
0.002195
0.003874
0.004082
-0.015592
-0.004419
-0.035443
-0.016285
0.043562
0.034270
-0.038120
-0.017629
-0.012962
-0.033726
-0.004132
-0.009318
-0.007523
-0.032596
0.045815
0.068141
-0.012907
-0.045515
-0.000609
-0.016619
-0.012004
0.000925
-0.000611
-0.022844
-0.009784
0.090767
0.049671
-0.028920
-0.017230
0.000720
0.004429
-0.015684
0.006071
-0.016655
-0.021015
0.036989
0.054539
-0.012982
-0.004555
0.000473
-0.029149
0.030977
-0.004654
-0.001846
-0.018784
0.015288
0.033423
0.010154
-0.021619
-0.013556
-0.008803
-0.007270
0.026826
-0.016731
-0.008837
-0.003217
0.026644
0.029826
-0.001706
0.002549
-0.003422
-0.019043
-0.032336
0.003374
-0.000543
-0.015389
0.002723
0.028751
-0.008166
-0.024038
-0.000164
-0.001095
-0.015152
0.006395
0.041368
0.083978
0.027013
-0.089684
-0.094470
-0.041235
0.072636
0.055441
-0.011608
-0.025595
-0.003338
-0.005292
-0.001845
0.109497
0.005166
-0.078667
-0.087859
0.034841
0.099757
0.013833
-0.048911
-0.019819
0.002609
-0.049833
0.170945
0.108124
-0.081272
-0.189903
-0.058300
0.104127
0.079183
-0.000012
-0.034685
-0.009703
-0.132858
0.088538
0.236130
0.031247
-0.174856
-0.149339
0.014367
0.081643
0.054031
0.002504
-0.033196
-0.124402
-0.085767
0.272604
0.204153
-0.154456
-0.206714
-0.052717
0.031422
0.046846
0.040112
-0.019966
-0.034755
-0.211089
0.098061
0.409132
-0.005984
-0.228007
-0.099291
-0.021578
-0.004826
0.033658
0.022183
0.026920
-0.160639
-0.116748
0.361679
0.209821
-0.149961
-0.082927
-0.027078
-0.016639
-0.001727
0.057039
0.049319
-0.091295
-0.217925
0.176910
0.283730
-0.049055
-0.072576
-0.032018
-0.044558
-0.033169
0.015830
0.030197
-0.032603
-0.211365
0.025413
0.235818
0.050042
-0.059765
-0.009645
-0.030168
-0.031625
0.000408
0.005666
0.029140
-0.160057
-0.090812
0.174684
0.115614
-0.070911
-0.002403
-0.006737
-0.024784
-0.020776
0.010322
0.049815
-0.096036
-0.171986
0.038745
0.180074
0.050818
-0.016481
0.002427
-0.004198
-0.022434
0.127046
0.052527
-0.131194
-0.165218
-0.113970
0.064934
0.076867
0.042504
0.018080
0.023561
-0.007227
0.040670
0.182149
0.016694
-0.129771
-0.179740
-0.013621
0.117080
0.059329
-0.019755
-0.006886
0.009354
-0.063644
0.248060
0.171380
-0.104367
-0.294975
-0.186972
0.065399
0.094382
0.030481
-0.011501
-0.001822
-0.179728
0.137158
0.356175
0.096444
-0.239077
-0.272493
-0.056433
0.081852
0.095753
0.046575
-0.023682
-0.181213
-0.078527
0.377236
0.340830
-0.150875
-0.316381
-0.142410
-0.005106
0.062466
0.078436
0.017890
-0.123522
-0.271529
0.155144
0.581483
0.082834
-0.281384
-0.187039
-0.068522
-0.022106
0.049284
0.054214
-0.017837
-0.248166
-0.141893
0.486150
0.330641
-0.155622
-0.152780
-0.101460
-0.068114
-0.008544
0.045350
0.027431
-0.154132
-0.288731
0.229223
0.405055
0.001718
-0.089957
-0.068994
-0.068765
-0.028858
0.018952
0.054673
-0.051233
-0.300015
0.025198
0.320979
0.104501
-0.068806
0.013606
-0.028511
-0.042399
-0.001632
0.051070
0.035931
-0.234854
-0.133749
0.216520
0.157439
-0.052278
-0.014839
-0.003945
-0.030890
-0.012656
0.036402
0.074038
-0.143852
-0.238366
0.025735
0.209403
0.039245
-0.016786
0.031390
0.022391
-0.037689
0.118650
0.035563
-0.085639
-0.080279
-0.074012
0.010038
0.012182
0.000214
0.009984
0.022778
0.000567
0.029054
0.112106
-0.024852
-0.039161
-0.077648
-0.015191
0.028989
-0.004272
-0.023747
-0.001918
0.016855
-0.032023
0.157694
0.070423
-0.040808
-0.119836
-0.092878
0.026649
0.034315
-0.004873
-0.008368
0.012543
-0.105277
0.080343
0.165147
0.049684
-0.082628
-0.106059
-0.026070
0.017835
0.027716
0.014543
0.000409
-0.089016
-0.061320
0.204465
0.166819
-0.074564
-0.115011
-0.040973
0.000377
-0.000270
0.030492
0.009378
-0.041257
-0.163293
0.055015
0.340932
0.015873
-0.140476
-0.050060
-0.033251
-0.046883
0.000422
0.017996
0.015812
-0.113186
-0.117130
0.287726
0.167290
-0.111816
-0.031178
-0.035368
-0.060288
-0.029423
0.018049
0.024274
-0.059251
-0.201308
0.142463
0.213369
-0.051913
-0.019244
0.017594
-0.037757
-0.034106
-0.010274
0.023054
0.007755
-0.190327
0.016437
0.191736
0.021401
-0.023899
0.063507
-0.004889
-0.033244
-0.025964
0.009699
0.050820
-0.155408
-0.071252
0.151479
0.075334
-0.052926
0.026034
0.017844
-0.019869
-0.044876
0.003927
0.057564
-0.107131
-0.158734
0.028546
0.142321
0.017094
-0.005955
0.038142
0.023090
-0.036363
0.010623
-0.005402
-0.010136
-0.001840
0.008207
0.022291
0.014336
-0.003072
-0.001057
0.008834
-0.003426
-0.026393
-0.016493
-0.001163
0.036080
0.031401
0.006875
-0.003900
0.004760
0.001887
-0.009586
-0.013894
0.039190
0.083028
0.075846
0.069406
0.048747
0.021971
0.006517
0.012721
-0.016781
-0.036879
-0.032660
-0.004394
0.012266
-0.057183
-0.099173
-0.122414
-0.129180
-0.142513
-0.148882
-0.118639
-0.068555
0.018255
-0.048139
-0.054481
-0.112794
-0.151078
-0.122285
-0.081831
-0.033830
0.045299
0.114089
0.149587
0.158314
-0.031250
-0.052388
-0.020790
0.047318
0.127616
0.220486
0.276666
0.282246
0.194001
0.109422
0.001718
0.008064
0.036896
0.145358
0.221186
0.225875
0.177549
0.077811
-0.010355
-0.101779
-0.124451
-0.143632
0.114205
0.088174
0.097111
0.020165
-0.067455
-0.145730
-0.210002
-0.201579
-0.149444
-0.060940
-0.018388
-0.038226
-0.099411
-0.139184
-0.179106
-0.200139
-0.179955
-0.119995
-0.080201
-0.012834
0.022134
0.027179
-0.027871
-0.027234
-0.007370
0.037259
0.038170
0.076780
0.107801
0.128639
0.106111
0.067515
0.032482
-0.010509
0.034358
0.029041
0.028399
0.029185
0.018572
0.009109
0.000198
-0.027334
-0.042136
-0.056999
0.046984
0.033581
0.020699
0.023795
0.036144
0.026626
0.016745
-0.010892
-0.008446
0.004811
0.006229
-0.032714
-0.028232
-0.009455
0.012114
0.002021
-0.024400
-0.038334
-0.027947
-0.031722
-0.033368
-0.018584
-0.002628
0.040310
0.030741
0.005944
-0.015466
-0.074510
-0.072607
-0.049460
-0.056388
-0.058029
-0.017236
-0.048177
-0.047816
-0.115621
-0.188436
-0.230266
-0.211988
-0.184418
-0.159579
-0.087865
-0.027061
0.086792
-0.086088
-0.116122
-0.174231
-0.174299
-0.120667
-0.040484
0.053868
0.165560
0.248803
0.272720
0.244393
-0.022126
-0.055429
0.027897
0.149149
0.293903
0.418541
0.483097
0.456014
0.324507
0.148849
-0.009376
0.106749
0.132664
0.299726
0.420759
0.429873
0.328252
0.150803
-0.007909
-0.157827
-0.217957
-0.249169
0.224997
0.193199
0.189313
0.077769
-0.061478
-0.222102
-0.330157
-0.350265
-0.291173
-0.185711
-0.108670
0.004257
-0.111216
-0.202663
-0.277637
-0.330385
-0.337612
-0.272009
-0.182335
-0.089950
-0.006276
0.016991
-0.041002
-0.072067
-0.069553
-0.031351
-0.003986
0.042889
0.084094
0.123151
0.143176
0.110645
0.079386
-0.032658
-0.015980
-0.015722
0.007944
0.019648
0.025988
0.041871
0.036879
0.019153
-0.013546
-0.003754
0.020735
0.006255
0.008824
0.014889
0.019945
0.021169
0.010542
-0.011436
-0.033485
-0.011191
0.007433
-0.023315
-0.017690
-0.000696
0.011869
0.003507
0.001078
-0.006367
0.000881
0.003491
0.000154
-0.002082
0.021508
0.050043
0.046841
0.038264
0.011736
-0.001602
-0.018939
-0.011278
-0.015986
-0.022770
-0.022382
-0.026997
-0.027657
-0.057952
-0.099249
-0.120383
-0.114475
-0.111662
-0.106090
-0.071817
-0.033850
0.039870
-0.066695
-0.064321
-0.092345
-0.113818
-0.089701
-0.043591
-0.004206
0.059021
0.128268
0.153821
0.154307
-0.026124
-0.048827
-0.005467
0.053048
0.132744
0.206952
0.256172
0.247863
0.168376
0.088120
-0.040521
0.037344
0.045508
0.145124
0.209002
0.223564
0.155568
0.062216
-0.039269
-0.126718
-0.143427
-0.190979
0.129901
0.092654
0.103984
0.030032
-0.037537
-0.132958
-0.185080
-0.187787
-0.147762
-0.097721
-0.062254
-0.012981
-0.068930
-0.118820
-0.167205
-0.185993
-0.167110
-0.135589
-0.079283
-0.034204
0.019398
0.033862
-0.013808
-0.037778
-0.012343
0.010314
0.043102
0.061840
0.088829
0.104576
0.114423
0.098875
0.087394
-0.020566
-0.005574
-0.003587
-0.000816
-0.002327
0.033139
0.022770
0.026488
0.007524
-0.008764
0.006574
-0.021967
-0.027078
-0.021954
-0.005606
-0.011732
-0.001998
0.003088
0.000054
0.004490
-0.001440
0.013860
0.000855
-0.023091
-0.001299
0.008388
0.005380
0.000637
0.015247
0.021485
0.014016
0.003576
0.000126
0.114457
0.081423
0.105973
0.111220
0.131900
0.163200
0.156302
0.136760
0.135413
0.103192
0.088565
0.116662
0.086782
0.085552
0.105373
0.140474
0.151545
0.128001
0.075968
0.045428
0.016364
-0.038553
0.098558
0.113323
0.123177
0.138720
0.091155
0.042186
-0.024099
-0.074346
-0.105907
-0.116693
-0.129447
0.019595
0.030767
-0.044247
-0.120076
-0.233313
-0.313355
-0.299050
-0.254378
-0.191206
-0.130703
-0.109944
-0.173245
-0.170446
-0.301990
-0.368372
-0.375753
-0.337216
-0.237723
-0.134336
-0.062931
-0.042088
-0.034583
-0.235984
-0.165397
-0.181130
-0.106188
-0.063519
-0.001013
0.024937
0.064564
0.044545
-0.003471
0.004089
-0.097500
-0.011921
0.008913
0.051854
0.095794
0.119526
0.121004
0.077724
0.055868
0.026752
0.054954
0.089715
0.123697
0.170396
0.181707
0.178839
0.160660
0.153282
0.128178
0.122613
0.098257
0.122929
0.018261
0.011787
0.048812
0.045036
0.037458
0.023825
-0.003909
-0.001237
-0.008254
-0.026494
-0.022307
-0.003431
-0.001958
0.005339
0.030750
0.016212
0.025590
0.011370
0.022615
0.002816
-0.009031
0.015364
0.003512
-0.010189
0.001901
0.019046
0.015557
0.001846
0.010584
0.008596
0.009192
-0.003371
-0.012026
0.056158
0.048145
0.056749
0.067325
0.085338
0.099220
0.096147
0.089234
0.080761
0.070838
0.061152
0.050455
0.035762
0.040711
0.061082
0.082353
0.092484
0.069979
0.044054
0.023466
-0.007451
-0.027248
0.039161
0.054089
0.048676
0.070609
0.053013
0.009802
-0.037321
-0.083393
-0.097859
-0.093623
-0.108954
-0.020604
-0.008507
-0.070794
-0.143944
-0.238643
-0.282718
-0.285592
-0.230043
-0.164802
-0.123404
-0.075648
-0.152927
-0.159200
-0.279899
-0.309206
-0.327713
-0.276001
-0.200048
-0.098633
-0.024542
-0.028551
-0.018167
-0.160262
-0.103683
-0.124280
-0.035834
-0.002494
0.065984
0.076213
0.087151
0.047521
0.009565
0.018006
-0.007959
0.058651
0.064264
0.086610
0.126206
0.132490
0.113024
0.086285
0.043403
0.028069
0.065761
0.125117
0.125279
0.157630
0.151624
0.152261
0.130798
0.120912
0.105716
0.102670
0.072022
0.089638
0.047501
0.024835
0.038582
0.044265
0.018876
0.020750
0.006077
0.014547
0.014197
-0.016655
-0.006803
-0.007245
0.017694
0.003779
0.018154
0.009068
0.008122
-0.003917
0.007261
-0.007532
-0.016897
0.019166
-0.005653
-0.012188
-0.000625
-0.001286
-0.010249
-0.020468
-0.021890
-0.022977
-0.030457
-0.015997
-0.004918
0.001124
-0.007354
-0.017224
-0.024681
-0.023036
-0.011896
-0.015802
-0.015924
0.017121
0.018990
0.047044
-0.011801
-0.033764
-0.036544
-0.029211
-0.004782
0.012084
0.016083
0.020838
0.025132
0.043429
0.037769
-0.000086
0.005114
0.040149
0.061107
0.076731
0.077845
0.067504
0.059039
0.023848
0.019781
-0.000576
0.006695
0.042907
0.037938
0.040623
0.009698
-0.009185
-0.030915
-0.033639
-0.026800
-0.012892
-0.024814
-0.024475
-0.007717
-0.058726
-0.070134
-0.061372
-0.056110
-0.040241
-0.014968
0.013869
-0.005747
-0.025665
-0.019270
0.014697
0.005074
0.036163
0.046519
0.033913
0.032087
0.019558
-0.000298
-0.019743
-0.020089
0.024917
0.029912
0.015005
0.006544
0.000907
0.008638
-0.004385
-0.017717
-0.022240
-0.022369
-0.000473
0.035866
0.001159
-0.003547
-0.007315
-0.003039
-0.023931
-0.022858
-0.013733
-0.005059
-0.001467
0.025289
-0.015269
-0.044915
-0.037010
-0.022205
-0.016831
-0.012569
-0.010613
0.002737
0.016366
0.001253
0.004777
0.136509
0.120291
0.093207
0.082303
0.077464
0.069876
0.068067
0.058658
0.066561
0.068977
0.078851
0.082185
0.055689
0.034235
0.030534
0.027013
0.046554
0.058236
0.055891
0.060134
0.049754
0.050851
0.067253
0.036575
0.022122
0.001515
-0.017594
-0.010219
-0.005333
0.001454
-0.030707
-0.022849
-0.049579
-0.000199
-0.018756
-0.020594
-0.040292
-0.065532
-0.049003
-0.053674
-0.048879
-0.049985
-0.040810
-0.064150
-0.009925
-0.028079
-0.040026
-0.058096
-0.057618
-0.034190
-0.035901
-0.059738
-0.081677
-0.040162
-0.057210
0.003903
-0.037329
-0.066868
-0.066991
-0.080027
-0.022145
-0.002817
-0.054576
-0.111395
-0.077523
-0.069034
0.026443
-0.015334
-0.076735
-0.078191
-0.053166
-0.027912
-0.016409
-0.069090
-0.109199
-0.084527
-0.073734
0.034464
0.024750
-0.064939
-0.068626
-0.073870
-0.050074
-0.025255
-0.055320
-0.095341
-0.091369
-0.064379
0.020672
0.022033
-0.080386
-0.093320
-0.123977
-0.087305
-0.053569
-0.058019
-0.098150
-0.084199
-0.083359
0.041284
0.035423
-0.070263
-0.072201
-0.063655
-0.032388
0.012621
0.003290
-0.035399
-0.070556
-0.069002
-0.002531
0.016419
-0.075187
-0.093905
-0.057186
-0.034226
-0.019951
-0.034871
-0.063051
-0.078143
-0.070047
-0.000633
-0.017999
0.028095
0.016912
0.016426
0.007208
0.004260
0.008564
0.006659
0.014105
-0.028838
-0.059929
-0.076911
-0.039395
-0.040319
-0.033185
-0.031552
-0.029961
-0.022221
-0.023690
-0.027336
-0.078252
0.058451
0.047249
0.084376
0.066894
0.041975
0.048001
0.047249
0.045703
0.014533
0.016701
-0.079732
0.019653
-0.020693
0.039559
0.024632
-0.006294
0.005288
-0.013255
-0.009081
-0.038985
-0.000026
-0.087454
0.030228
0.010232
0.054679
0.048174
0.005774
0.028661
0.026641
0.003298
-0.039773
0.005670
-0.081126
0.065448
0.015698
0.039015
0.040797
0.008914
0.029672
0.037657
-0.009025
-0.055874
0.005256
-0.069220
0.074147
0.023369
0.037551
0.019737
0.011296
0.018148
0.037989
-0.018405
-0.045943
0.002780
-0.074587
0.067756
0.058917
0.043178
0.010985
0.003686
-0.007248
0.005772
-0.021602
-0.037225
-0.002634
-0.065918
0.069884
0.056305
0.034241
0.010818
-0.037444
-0.043579
-0.019097
-0.010913
-0.023396
-0.003377
-0.087604
0.105070
0.100471
0.073263
0.051439
0.049736
0.043386
0.054587
0.042440
0.011712
0.005352
-0.065598
-0.012907
-0.007917
-0.021807
-0.045708
-0.028307
-0.033661
-0.043095
-0.058935
-0.092951
-0.087404
-0.152916
-0.151003
-0.135604
-0.036406
-0.039913
-0.059309
-0.055406
-0.068371
-0.064572
-0.050268
-0.028888
-0.124216
-0.187321
-0.208240
-0.114378
-0.127481
-0.122337
-0.110674
-0.107465
-0.114677
-0.088693
-0.064759
-0.173460
0.073152
0.013468
0.125631
0.088192
0.082062
0.097362
0.090677
0.098580
0.110999
0.152753
-0.002808
-0.024822
-0.076530
0.039767
0.029606
0.013046
0.011606
0.012811
0.031657
0.032173
0.119997
-0.024632
-0.006398
-0.053338
0.069682
0.058548
0.042500
0.051023
0.073677
0.054581
0.061250
0.142047
0.015391
0.020399
-0.041904
0.085097
0.060038
0.052357
0.068053
0.087843
0.083863
0.064646
0.146052
0.032305
0.004746
-0.043842
0.072759
0.043484
0.025519
0.054206
0.075105
0.053474
0.055738
0.143284
0.021957
-0.010864
-0.027097
0.064234
0.048620
0.022366
0.031567
0.049672
0.067998
0.074404
0.121956
0.010180
-0.011228
-0.024914
0.051853
0.029275
0.011284
0.011167
0.037414
0.069934
0.072045
0.139127
0.017659
0.043030
0.043699
0.116581
0.113675
0.113115
0.110584
0.116401
0.143544
0.140990
0.180101
0.027285
-0.080728
-0.096641
-0.015155
-0.038082
-0.032073
-0.027263
-0.018652
-0.019826
-0.005625
0.015787
-0.122544
0.038422
0.004732
-0.049479
-0.058174
-0.068627
-0.014899
0.140110
0.223184
-0.067837
-0.256343
0.061769
-0.062186
0.075891
0.125127
0.086182
-0.086293
-0.264093
-0.270641
0.110919
0.430046
0.085556
-0.225014
-0.055832
-0.093600
0.008120
0.203995
0.281711
0.089858
-0.325186
-0.503603
0.008816
0.386488
0.061403
0.052121
-0.070187
-0.186129
-0.091473
0.154731
0.402083
0.278298
-0.231886
-0.466787
-0.067737
0.238195
0.059570
0.095652
-0.052171
-0.229082
-0.189240
0.079387
0.343620
0.279542
-0.139279
-0.318365
0.015907
-0.013313
0.062081
0.110274
-0.095981
-0.212972
-0.144542
0.097775
0.275222
0.183913
-0.112902
-0.162530
-0.026623
-0.008461
0.209885
0.163037
-0.197783
-0.347903
-0.177718
0.124545
0.266544
0.107643
-0.118639
-0.034088
-0.162321
-0.023432
0.377256
0.285855
-0.122875
-0.343132
-0.252868
0.054482
0.208521
0.043011
0.093883
-0.056215
-0.307407
-0.120562
0.330119
0.352523
0.068934
-0.260106
-0.241324
0.031851
0.074295
0.045529
0.213102
0.019347
-0.320664
-0.231552
0.124887
0.287261
0.190301
-0.079472
-0.138058
0.014301
-0.128311
-0.064257
0.165516
0.130714
-0.079086
-0.158464
-0.084700
0.075707
0.088950
-0.020937
-0.014478
0.052014
0.016138
-0.056569
-0.060677
-0.068930
-0.047850
0.132468
0.264055
-0.015309
-0.237517
0.071471
-0.044726
0.093589
0.149787
0.105163
-0.077715
-0.299219
-0.382264
0.051194
0.485724
0.136910
-0.200919
-0.077160
-0.113510
-0.002759
0.248968
0.392240
0.178669
-0.381652
-0.643543
-0.097865
0.400406
0.089321
0.054815
-0.106338
-0.251354
-0.159398
0.188214
0.551670
0.446204
-0.226523
-0.600126
-0.134736
0.243383
0.064025
0.099634
-0.087952
-0.348344
-0.312948
0.097636
0.526276
0.453663
-0.104852
-0.395469
-0.042432
-0.004199
0.099403
0.152435
-0.149708
-0.377242
-0.306459
0.083934
0.421555
0.322596
-0.081560
-0.179471
-0.007479
0.025987
0.310209
0.223258
-0.248007
-0.534233
-0.332607
0.084346
0.372295
0.190520
-0.093778
-0.051467
-0.179585
0.032750
0.517968
0.417633
-0.155833
-0.493934
-0.391877
0.038063
0.266036
0.074317
0.077645
-0.098050
-0.408099
-0.113253
0.462426
0.500637
0.080865
-0.346891
-0.335081
-0.007536
0.080031
0.065130
0.210123
-0.046300
-0.397369
-0.263524
0.175509
0.371002
0.218609
-0.102847
-0.142777
0.001669
-0.086492
-0.012924
0.194492
0.124184
-0.139404
-0.196284
-0.087264
0.105717
0.112976
-0.013555
-0.007135
0.049085
-0.006678
-0.058581
-0.047421
-0.025614
0.022932
0.135104
0.176286
-0.113502
-0.258234
0.105702
-0.035519
0.070632
0.093681
0.042465
-0.092659
-0.221024
-0.195992
0.128762
0.385346
0.041150
-0.225062
-0.044062
-0.071848
0.010394
0.150505
0.207964
0.057191
-0.252924
-0.384134
0.037402
0.334639
-0.000168
0.061211
-0.045782
-0.135276
-0.095499
0.078610
0.284359
0.225971
-0.165726
-0.363440
-0.008542
0.213090
0.014686
0.095000
-0.005740
-0.154187
-0.149919
0.003664
0.225063
0.207535
-0.106593
-0.236465
0.041634
-0.053134
0.035249
0.094856
-0.009816
-0.118533
-0.099167
0.053672
0.174695
0.132504
-0.094018
-0.116914
-0.028179
-0.039036
0.142227
0.126973
-0.125185
-0.205239
-0.084250
0.090364
0.193126
0.073523
-0.107859
-0.023360
-0.140742
-0.054804
0.265824
0.229763
-0.083041
-0.237981
-0.167009
0.065768
0.165175
0.026252
0.073439
-0.020518
-0.308471
-0.145517
0.243717
0.281712
0.073662
-0.178714
-0.188670
0.029539
0.058347
0.029590
0.201810
0.038930
-0.283356
-0.244510
0.041961
0.213867
0.156627
-0.064958
-0.098481
0.015452
-0.079984
-0.043174
0.159920
0.189000
-0.030727
-0.161018
-0.123877
0.021197
0.072544
-0.009695
-0.005476
0.159011
0.085544
0.190934
0.169838
0.159546
0.170096
0.180056
0.167706
0.121028
0.131145
0.055269
0.002373
-0.069691
0.015419
-0.020868
-0.027933
-0.023951
-0.024262
-0.016450
-0.037766
-0.029215
-0.081866
0.214363
0.112330
0.207465
0.185300
0.196241
0.196530
0.189512
0.168266
0.163176
0.170934
0.147595
0.085376
0.014953
0.098911
0.055614
0.086426
0.083774
0.056170
0.061298
0.052479
0.056640
0.040514
0.088868
0.027338
0.088893
0.038068
0.044907
0.038345
0.033192
0.048367
0.042129
0.050874
0.032284
0.044612
0.007989
0.038762
0.013812
-0.004941
0.012021
0.002621
0.012655
0.017113
0.013096
0.018021
0.005680
-0.012736
0.008486
-0.011469
-0.018699
-0.005108
-0.003008
-0.023087
-0.027281
-0.041246
-0.022194
-0.041146
-0.029236
-0.048709
-0.043246
-0.052469
-0.061613
-0.069795
-0.079429
-0.080705
-0.071944
-0.074056
-0.063980
-0.021104
-0.083868
-0.078500
-0.097977
-0.078522
-0.085654
-0.087565
-0.063397
-0.059447
-0.061126
-0.167241
-0.141848
-0.191960
-0.186031
-0.206756
-0.191688
-0.170207
-0.166314
-0.156179
-0.168851
-0.155266
-0.077029
-0.051964
-0.104309
-0.108992
-0.129738
-0.145053
-0.135703
-0.119604
-0.091850
-0.111089
-0.045197
0.106670
0.052902
0.105898
0.079148
0.078479
0.080036
0.079285
0.080710
0.051687
0.065391
0.042613
-0.013791
-0.050000
-0.016333
-0.045423
-0.053006
-0.043068
-0.043933
-0.040017
-0.050993
-0.033288
-0.064617
0.095251
0.033466
0.081278
0.071029
0.074569
0.072839
0.065226
0.071419
0.059339
0.054030
0.057050
0.037570
-0.011730
0.017260
0.001769
0.012718
0.015023
-0.013252
-0.007099
0.001005
-0.006954
-0.006711
0.053790
0.024223
0.037942
0.008821
0.020156
0.012864
0.008608
0.023093
0.014443
0.011355
0.007854
0.026100
-0.001639
0.006922
-0.005145
-0.009254
-0.013684
-0.009595
-0.006451
-0.002060
-0.021545
0.007648
0.009419
0.002662
-0.012183
0.003367
-0.007445
0.004715
0.007885
-0.016803
0.003091
-0.027605
-0.007233
-0.011783
0.008608
-0.035213
-0.027881
-0.027326
-0.027713
-0.034831
-0.049595
-0.038169
-0.036963
-0.024157
-0.007688
0.023545
-0.033602
-0.022117
-0.035750
-0.019556
-0.019208
-0.027219
0.004172
-0.017658
-0.004516
-0.065507
-0.045649
-0.095520
-0.081225
-0.083628
-0.076872
-0.068126
-0.069591
-0.048738
-0.083397
-0.060304
0.006022
0.036345
-0.034109
-0.023464
-0.032105
-0.030183
-0.012275
-0.021710
0.005330
-0.003428
0.052298
0.001251
-0.017156
0.001025
-0.006848
-0.016725
-0.002224
-0.005396
0.004166
-0.000058
0.009793
0.006332
-0.038230
-0.024356
-0.030364
-0.042843
-0.047738
-0.037351
-0.034853
-0.024420
-0.029293
-0.006295
-0.026557
0.001073
-0.012459
0.004435
0.004019
0.003909
0.008828
0.004293
0.004762
0.003019
0.000710
0.013084
-0.040980
-0.026195
-0.029682
-0.039631
-0.014615
-0.033625
-0.033004
-0.023784
-0.027630
-0.029758
-0.026541
-0.000844
-0.003137
-0.003711
-0.007809
0.002431
-0.004834
-0.008018
0.000045
-0.000976
-0.002836
-0.001334
-0.031467
-0.010807
0.001606
-0.018082
-0.009552
-0.022016
-0.009763
-0.012665
0.003622
-0.017732
0.013222
-0.002936
0.002795
-0.001042
0.009075
0.018972
0.021939
0.015449
-0.000142
0.017596
0.006003
0.011018
-0.011864
0.004427
-0.013788
0.001835
-0.008914
-0.012679
0.002198
-0.020136
-0.003990
-0.010021
0.006364
0.009128
0.036280
0.007520
0.019743
-0.002629
0.016271
0.023672
0.025596
0.024122
0.005228
0.030356
-0.016509
0.015647
-0.016219
0.011168
0.006062
0.020228
0.008779
0.013167
0.002233
-0.016902
-0.003977
0.039366
0.057029
0.028400
0.058925
0.041373
0.049370
0.056103
0.036761
0.049026
0.033062
0.078982
-0.010893
0.000552
-0.033365
0.032091
0.061029
-0.102634
-0.027101
0.081375
0.007000
-0.010613
-0.026439
0.012056
0.009040
-0.070304
-0.008219
0.095042
-0.070846
-0.074119
0.104214
0.054852
-0.057106
0.004702
0.021693
0.017461
-0.052697
-0.060301
0.179254
-0.000785
-0.220539
0.042689
0.142702
-0.050684
-0.026909
0.038455
0.023630
-0.040319
-0.162793
0.143553
0.201459
-0.250555
-0.152128
0.215648
0.037982
-0.062026
0.033200
0.047485
0.026602
-0.188711
-0.013053
0.389872
-0.076050
-0.370451
0.072717
0.169820
-0.046264
-0.021680
0.055345
0.102870
-0.152686
-0.233683
0.294731
0.269844
-0.346359
-0.179943
0.162240
0.053464
-0.049068
0.035524
0.157152
-0.022106
-0.315290
0.013045
0.416704
-0.037616
-0.322265
0.010500
0.116187
-0.060075
-0.012939
0.164523
0.127619
-0.226605
-0.208763
0.230754
0.232546
-0.159412
-0.147235
0.066652
-0.016017
-0.083216
0.061048
0.206120
-0.045891
-0.243600
0.011109
0.200381
0.049211
-0.112685
-0.016151
-0.002877
-0.089152
-0.077601
0.162393
0.118172
-0.138665
-0.094569
0.080840
0.078234
-0.013566
-0.066842
-0.004927
-0.019200
-0.106982
0.036297
0.178895
0.000258
-0.090944
-0.026543
0.007670
0.044724
-0.017420
-0.008602
0.001765
-0.012633
0.104107
0.113122
-0.152060
-0.079766
0.065900
0.010195
-0.003009
0.008432
-0.000970
-0.014732
-0.071594
0.042567
0.190840
-0.069581
-0.176175
0.062503
0.044851
-0.036929
0.050658
-0.012244
-0.033777
-0.080300
-0.015427
0.315576
0.053074
-0.317394
-0.049137
0.137766
-0.029919
0.019421
0.033164
-0.031958
-0.102837
-0.187127
0.294086
0.354891
-0.304991
-0.279546
0.174778
0.054053
-0.021752
0.044051
0.005207
-0.085349
-0.277746
0.044990
0.590837
0.000998
-0.490205
0.002921
0.175729
0.000679
0.032651
0.074261
0.017240
-0.304483
-0.298103
0.494297
0.479490
-0.370778
-0.294307
0.103881
0.050827
-0.003157
0.076135
0.115835
-0.176094
-0.462541
0.072576
0.641747
0.074909
-0.392237
-0.082969
0.078605
-0.000153
0.024024
0.166550
0.019171
-0.409088
-0.264896
0.382492
0.389918
-0.148019
-0.211672
0.026906
0.008399
-0.045857
0.101898
0.208756
-0.166288
-0.383294
0.023574
0.336949
0.132273
-0.111694
-0.050446
0.038450
-0.047650
-0.015862
0.186302
0.043550
-0.298280
-0.163550
0.145480
0.168905
0.017996
-0.068489
0.015793
0.023873
-0.060164
0.075772
0.151923
-0.117239
-0.199859
-0.035050
0.053974
0.087479
0.008670
-0.027398
0.006473
0.004007
0.090506
0.093434
-0.124685
-0.077861
0.024828
-0.013836
0.008820
0.013076
-0.021639
0.008829
-0.045066
0.030331
0.137782
-0.052691
-0.114521
0.061557
0.002852
-0.045678
0.046260
-0.027443
-0.010690
-0.028609
-0.013021
0.213074
0.027400
-0.212315
-0.016446
0.092274
-0.063593
0.021025
-0.003306
-0.016569
-0.026277
-0.117831
0.187502
0.254275
-0.214941
-0.159976
0.137371
-0.003975
-0.044245
-0.001407
-0.003569
-0.012840
-0.166007
0.013058
0.422215
0.006178
-0.340763
0.041651
0.118440
-0.047612
-0.014622
0.018026
0.046327
-0.171267
-0.206464
0.331348
0.336141
-0.270874
-0.179898
0.107737
0.010588
-0.023445
0.026539
0.081807
-0.076540
-0.312948
0.042702
0.446712
0.052572
-0.267414
-0.023337
0.040224
-0.004379
-0.025652
0.085950
0.039348
-0.239321
-0.197927
0.251695
0.287866
-0.093918
-0.141670
0.011643
0.038517
-0.069688
0.027891
0.139203
-0.075931
-0.261249
0.012187
0.233460
0.112581
-0.092408
-0.057423
0.047324
-0.038100
-0.064681
0.112291
0.048064
-0.186240
-0.103849
0.112573
0.140267
0.018129
-0.069140
0.030527
0.036653
-0.057747
0.012718
0.086656
-0.087369
-0.132376
-0.035586
0.060334
0.081595
0.007093
0.038982
0.084982
-0.011643
-0.003893
-0.013767
0.008842
0.015273
0.053541
0.101063
0.089457
0.163850
0.076048
0.109433
0.017181
0.026628
0.021890
0.021858
0.024224
0.030957
0.057293
0.079352
0.195085
0.002113
0.026313
-0.145159
-0.153947
-0.195304
-0.195699
-0.228311
-0.263261
-0.226550
-0.167881
0.072244
0.011333
0.056646
-0.147985
-0.163504
-0.194969
-0.211104
-0.219739
-0.271508
-0.284803
-0.232120
0.070948
0.000191
0.047226
-0.143542
-0.130501
-0.152144
-0.131991
-0.123710
-0.170484
-0.246378
-0.238289
0.028195
0.013812
0.062902
-0.133080
-0.112310
-0.067294
-0.062371
-0.028444
-0.070026
-0.129285
-0.178523
0.049269
0.036124
0.042074
-0.128081
-0.060794
-0.021942
-0.026599
0.009167
-0.023068
-0.051920
-0.077747
0.098077
0.055916
0.039114
-0.104009
-0.027241
0.016437
0.006988
0.019974
0.007192
-0.011516
-0.054508
0.114950
0.042429
0.012532
-0.139216
-0.050707
0.009813
0.025439
0.028428
-0.031121
-0.052848
-0.068757
0.082068
-0.018424
-0.048423
-0.188706
-0.125067
-0.062957
-0.039791
-0.033449
-0.056514
-0.098862
-0.104715
0.064161
0.059836
0.055470
-0.051696
-0.016024
0.020994
0.034720
0.024105
0.005472
-0.003810
-0.018346
0.132384
-0.007007
0.023909
0.024754
0.043877
0.032134
0.036581
0.021174
0.034658
0.055998
0.035467
0.028721
0.009528
0.044215
0.039296
0.077747
0.085702
0.091230
0.072615
0.073169
0.104939
0.086431
0.084660
0.043668
0.085588
0.039630
0.043824
0.046535
0.028568
0.010710
-0.003634
0.023260
0.027037
0.117880
0.053425
0.099741
0.039203
0.051153
0.040596
0.016560
0.037860
0.013852
0.004376
0.019582
0.134395
0.029228
0.089432
0.020663
0.033215
0.020333
0.038627
0.074265
0.054360
-0.007424
-0.025953
0.086478
0.016663
0.078189
0.002281
0.022649
0.039399
0.046183
0.084497
0.069848
0.043155
-0.014528
0.084957
0.032442
0.064737
-0.010786
0.025765
0.035014
0.030423
0.056946
0.054223
0.035367
0.019597
0.058046
0.066493
0.040026
-0.010822
0.039896
0.044103
0.023244
0.045499
0.032096
0.044619
0.023324
0.056214
0.054623
0.018505
-0.012366
0.027760
0.056466
0.025872
0.044563
0.029314
0.007780
-0.000577
0.043412
-0.004252
-0.020114
-0.045857
-0.008892
-0.005782
-0.004904
0.003203
-0.002850
-0.018192
-0.042975
0.015722
-0.002720
0.014531
-0.020977
0.003748
-0.007323
0.002073
-0.004971
-0.021104
-0.014583
-0.053320
0.014283
-0.057822
-0.058316
-0.021500
-0.013645
-0.013044
-0.007597
-0.035273
-0.040273
-0.007363
-0.033504
-0.092886
-0.079109
-0.068532
-0.024259
-0.013180
-0.007506
0.004641
-0.010369
-0.011930
0.017935
-0.001013
-0.073802
-0.043302
-0.021278
0.020661
0.029365
0.034891
0.012424
0.017652
0.022433
0.050279
0.038175
0.004159
-0.043386
-0.001770
0.046370
0.091496
0.068673
0.044885
0.072765
0.064559
0.080371
0.048738
0.014891
-0.056957
-0.003988
0.056021
0.090967
0.054001
0.036713
0.076504
0.101974
0.077566
0.033104
-0.003867
-0.056142
-0.005500
0.012601
0.028007
0.014381
0.005940
0.034682
0.059026
0.075339
0.011562
-0.045992
-0.057312
-0.029560
-0.008587
0.016323
-0.017965
-0.055031
-0.032176
-0.011564
0.032635
-0.001814
-0.079538
-0.032445
-0.037596
0.010742
0.045054
0.009610
-0.045061
-0.037523
-0.007629
0.027273
-0.008106
-0.076394
-0.003262
-0.019965
0.047203
0.065759
0.026256
-0.003158
0.005465
0.006151
0.038528
0.013796
-0.053943
-0.015086
-0.001488
0.059221
0.049189
0.019438
-0.003927
0.022732
0.023196
0.030912
0.009977
-0.041461
-0.000644
0.004215
0.043493
0.034725
0.009899
-0.004360
0.004227
0.021275
0.017123
0.007454
-0.025526
0.018826
-0.036716
-0.123715
-0.114399
-0.119193
-0.105424
-0.088111
-0.042405
0.020896
0.003228
0.002059
-0.042311
-0.089539
-0.175818
-0.174560
-0.155553
-0.097753
-0.075402
0.006376
0.061106
0.025748
0.027328
-0.150405
-0.178709
-0.289178
-0.287666
-0.230674
-0.163503
-0.128688
0.001682
0.045043
0.035960
0.017038
-0.117278
-0.158314
-0.248632
-0.258255
-0.208445
-0.131521
-0.047418
0.083608
0.126117
0.101732
0.079999
-0.108255
-0.160163
-0.229942
-0.254427
-0.201880
-0.107065
-0.002573
0.149594
0.180679
0.141824
0.079943
-0.108795
-0.151747
-0.220209
-0.242735
-0.190463
-0.087923
0.058239
0.228042
0.251672
0.184743
0.107557
-0.110593
-0.138220
-0.232192
-0.252066
-0.186093
-0.051450
0.106427
0.287844
0.314836
0.243900
0.131728
-0.113341
-0.135671
-0.223825
-0.220890
-0.106994
0.016366
0.159201
0.360565
0.379311
0.267744
0.161186
-0.048165
-0.059037
-0.147845
-0.134667
-0.007417
0.128983
0.238583
0.400546
0.422752
0.308926
0.184964
-0.016969
-0.029039
-0.101105
-0.087726
0.047820
0.161334
0.228263
0.328499
0.354901
0.266059
0.156545
0.052124
0.024473
-0.053536
-0.048282
0.052341
0.114172
0.138027
0.164139
0.155596
0.123853
0.044884
0.129113
0.136679
0.212799
0.200153
0.173050
0.133441
0.072019
0.010876
-0.024126
-0.067185
-0.029430
0.164048
0.182960
0.258774
0.256081
0.207563
0.170286
0.082873
0.009854
-0.050060
-0.088633
-0.062652
0.180764
0.237793
0.319654
0.303116
0.253960
0.179283
0.066567
-0.016685
-0.107450
-0.124451
-0.095472
0.205279
0.247344
0.336761
0.313601
0.263168
0.153529
0.046067
-0.071789
-0.159940
-0.175298
-0.116097
0.184341
0.236172
0.316750
0.305743
0.239459
0.129694
-0.032698
-0.153687
-0.226443
-0.231706
-0.161399
0.195792
0.226588
0.305068
0.268582
0.195047
0.080661
-0.075115
-0.195662
-0.280369
-0.273033
-0.175360
0.178784
0.218917
0.268189
0.238009
0.158279
0.016865
-0.146779
-0.266821
-0.367672
-0.318703
-0.227400
0.150256
0.171172
0.227265
0.176831
0.086215
-0.062372
-0.214226
-0.329120
-0.401997
-0.371959
-0.242355
0.121152
0.130377
0.184413
0.118557
0.032316
-0.113850
-0.284221
-0.373013
-0.417355
-0.382249
-0.251279
0.045266
0.037972
0.099534
0.031845
-0.055065
-0.178309
-0.273109
-0.358463
-0.392068
-0.358618
-0.260554
0.046957
0.015163
0.062276
0.006340
-0.068707
-0.149800
-0.205574
-0.257295
-0.279936
-0.252725
-0.189520
-0.081890
-0.113563
-0.102380
-0.088566
-0.073955
-0.043727
-0.033377
-0.012786
0.007920
0.045955
0.028359
-0.082992
-0.110073
-0.110855
-0.079687
-0.069900
-0.035674
-0.012652
0.013740
0.041025
0.076016
0.043877
-0.091791
-0.115203
-0.118334
-0.107320
-0.082279
-0.043491
-0.010083
0.005803
0.029633
0.081892
0.068690
-0.093011
-0.132633
-0.126553
-0.087652
-0.080897
-0.030305
-0.000491
0.020504
0.046898
0.104445
0.073596
-0.097252
-0.117945
-0.115426
-0.079726
-0.051558
-0.008061
0.013612
0.028603
0.040145
0.122285
0.078954
-0.074097
-0.119098
-0.080960
-0.065177
-0.018077
0.013213
0.048579
0.044990
0.069119
0.135385
0.088573
-0.076131
-0.111725
-0.087293
-0.055345
-0.017510
0.020307
0.027910
0.043696
0.068448
0.138917
0.078603
-0.062530
-0.099508
-0.060636
-0.029838
0.017070
0.030211
0.039970
0.054438
0.083377
0.139786
0.096272
-0.033890
-0.059117
-0.025967
0.000375
0.041328
0.054663
0.051281
0.084398
0.080021
0.151919
0.114581
-0.045763
-0.054366
0.006238
0.003231
0.038462
0.033997
0.069282
0.076429
0.098059
0.142166
0.108288
-0.020080
-0.028378
0.011882
0.019609
0.024669
0.034947
0.056691
0.080980
0.106288
0.142995
0.105493
-0.070771
-0.072232
-0.031337
-0.047392
-0.071573
-0.065579
-0.037935
-0.040211
-0.039801
-0.053610
-0.112014
-0.046493
-0.044289
-0.005909
-0.026921
-0.045650
-0.023536
-0.016176
-0.025049
-0.024894
-0.011325
-0.090260
-0.024166
-0.010523
0.076727
0.097479
0.090800
0.079783
0.066910
0.030541
0.014628
0.017674
-0.087629
-0.029642
-0.012022
0.145043
0.205186
0.216444
0.171050
0.096501
0.041375
0.011733
0.008466
-0.107431
-0.046175
0.029026
0.266263
0.382851
0.414360
0.299470
0.138212
0.034002
-0.007564
-0.004835
-0.114686
-0.025166
0.066184
0.346921
0.496176
0.513940
0.353075
0.148720
0.023527
-0.017552
-0.020481
-0.111755
-0.019010
0.051989
0.279373
0.396903
0.394531
0.269170
0.109403
0.022901
-0.015101
-0.014615
-0.102039
-0.030091
0.005750
0.160853
0.199267
0.186376
0.125123
0.045900
-0.009634
-0.009349
0.000297
-0.099867
-0.021635
0.000014
0.085983
0.063204
0.044697
0.028197
-0.000787
-0.003288
0.006470
0.007826
-0.066992
-0.024722
-0.034416
0.013574
0.011633
-0.004965
-0.011988
-0.011698
0.000671
-0.003950
-0.014145
-0.068014
-0.153035
-0.129769
-0.107136
-0.130416
-0.134936
-0.116214
-0.111491
-0.098691
-0.081546
-0.074456
-0.121904
0.139550
0.129160
0.056559
0.083558
0.090384
0.095227
0.063728
0.077098
0.065204
0.060016
0.168046
0.116313
0.087989
0.009188
0.013213
0.007310
0.015356
0.045687
0.053176
0.034304
0.040888
0.150224
0.047566
-0.012827
-0.150766
-0.192258
-0.200193
-0.157216
-0.097143
-0.042052
-0.013972
-0.006691
0.123822
0.038332
-0.043545
-0.263039
-0.375820
-0.377674
-0.292064
-0.164911
-0.060688
-0.011566
0.017698
0.152977
0.008853
-0.140402
-0.438397
-0.581998
-0.609092
-0.464091
-0.247099
-0.087463
-0.010772
0.026354
0.165921
-0.008675
-0.196973
-0.516010
-0.687781
-0.706262
-0.537466
-0.270351
-0.079499
0.008281
0.014779
0.161092
-0.000733
-0.147804
-0.454124
-0.583839
-0.579830
-0.445495
-0.225998
-0.072569
0.005159
0.019806
0.165127
0.042211
-0.067485
-0.279456
-0.355797
-0.342489
-0.247543
-0.127953
-0.029569
0.023670
0.018830
0.157379
0.079084
0.004515
-0.123617
-0.153718
-0.131577
-0.086353
-0.032263
0.004945
0.010993
0.018717
0.142914
0.104488
0.078969
-0.009237
-0.010818
-0.004189
0.000369
0.019488
0.026985
0.028284
0.031673
0.137651
0.236588
0.228425
0.149441
0.181068
0.179459
0.175422
0.153403
0.146596
0.129755
0.118990
0.213249
-0.065103
-0.055045
-0.039965
-0.029900
-0.029195
-0.031882
-0.053928
-0.033003
-0.026368
-0.029994
-0.076965
-0.070312
-0.034829
0.017608
0.028325
0.044452
0.016856
-0.015579
-0.006612
-0.007720
-0.022668
-0.052912
-0.030025
0.018533
0.064640
0.100394
0.112042
0.074640
0.028659
0.003161
0.001942
-0.015070
-0.051729
-0.004840
0.059816
0.124191
0.168941
0.187480
0.135458
0.063330
0.014983
0.011077
-0.027343
-0.056683
0.042183
0.124565
0.183845
0.200639
0.201490
0.178684
0.108151
0.061163
0.026128
-0.021832
-0.056032
0.047266
0.136594
0.186929
0.203069
0.179433
0.192984
0.152928
0.060978
0.033313
-0.011823
-0.049361
0.015802
0.118039
0.177902
0.187933
0.176685
0.179237
0.125413
0.056555
0.019904
-0.012419
-0.053234
-0.011109
0.052636
0.103600
0.162482
0.169673
0.129425
0.066699
0.031106
-0.000615
-0.020051
-0.056747
-0.070520
0.001687
0.042998
0.087956
0.088648
0.079750
0.034010
-0.006834
-0.009996
-0.037206
-0.076456
-0.092159
-0.043961
-0.008808
0.009813
0.002296
-0.003165
-0.009809
-0.021181
-0.039669
-0.029257
-0.082334
-0.100335
-0.083367
-0.063529
-0.057526
-0.042994
-0.047454
-0.055169
-0.052049
-0.047496
-0.043727
-0.088823
-0.047404
-0.059614
-0.062875
-0.067650
-0.080188
-0.079324
-0.099983
-0.071460
-0.078454
-0.057367
-0.041093
0.073457
0.050090
0.071004
0.055430
0.063535
0.054928
0.064749
0.066444
0.066482
0.065964
0.070256
0.063133
0.065538
0.082901
0.076206
0.097648
0.107818
0.124779
0.135048
0.130906
0.093144
0.051523
-0.052700
-0.006679
-0.001550
-0.004433
-0.015805
-0.040179
-0.061082
-0.080551
-0.085774
-0.050856
-0.067729
-0.100629
-0.091789
-0.114011
-0.101997
-0.099877
-0.096155
-0.068610
-0.052762
-0.060699
-0.050849
-0.087744
-0.003871
-0.011645
-0.050481
-0.096666
-0.139107
-0.155063
-0.137049
-0.104025
-0.088482
-0.040362
-0.023682
0.059579
0.059091
0.091474
0.089558
0.106820
0.106755
0.094992
0.085315
0.070272
0.064995
0.048255
0.075621
0.063782
0.141130
0.182904
0.241425
0.297497
0.313610
0.285203
0.227137
0.156886
0.129796
-0.047551
-0.081846
-0.091273
-0.129782
-0.192663
-0.232797
-0.255496
-0.227848
-0.196748
-0.135725
-0.080201
0.005599
0.000653
-0.011704
-0.009544
-0.019485
-0.005704
-0.027211
-0.001363
-0.010456
-0.003957
-0.015262
-0.022491
0.003731
-0.009767
-0.009671
0.008181
0.022037
0.019736
0.026943
0.018207
0.009889
-0.024177
-0.027407
-0.061381
-0.070155
-0.079038
-0.099614
-0.107989
-0.112317
-0.112187
-0.107403
-0.084677
-0.041005
0.089919
0.067865
0.093422
0.079174
0.098623
0.098837
0.096164
0.099511
0.095766
0.083502
0.088197
0.088485
0.115929
0.150578
0.145336
0.193269
0.203047
0.212332
0.206054
0.197691
0.153680
0.113469
-0.068033
-0.046988
-0.028241
-0.031077
-0.041286
-0.054502
-0.078834
-0.102782
-0.101878
-0.061444
-0.066515
-0.146010
-0.151479
-0.194360
-0.198531
-0.195860
-0.185209
-0.172446
-0.143244
-0.156648
-0.115706
-0.151961
-0.035751
-0.054085
-0.101546
-0.168976
-0.218935
-0.247380
-0.252435
-0.223832
-0.182921
-0.118144
-0.077131
0.073253
0.064740
0.101194
0.116400
0.143361
0.136728
0.106377
0.089044
0.080750
0.036165
0.048882
0.103605
0.098628
0.184580
0.274018
0.346981
0.417822
0.449734
0.407510
0.314548
0.225124
0.187976
-0.029080
-0.053511
-0.073494
-0.124159
-0.185791
-0.241294
-0.252650
-0.232477
-0.183146
-0.118970
-0.025173
0.022727
0.004324
-0.003797
-0.023423
-0.027668
-0.033198
-0.052142
-0.026940
-0.038550
-0.004230
-0.005230
-0.026646
-0.003557
-0.022111
-0.009661
0.010945
0.029298
0.026682
0.014822
0.010493
-0.003799
-0.016048
-0.029221
-0.039752
-0.026618
-0.054763
-0.051381
-0.055506
-0.057210
-0.053551
-0.080466
-0.041812
-0.048111
0.046715
0.023570
0.041155
0.030142
0.045772
0.049937
0.049144
0.049644
0.049936
0.056236
0.041756
0.063615
0.063552
0.076875
0.066614
0.098993
0.128428
0.129503
0.121442
0.131639
0.097899
0.072205
-0.060431
-0.018846
-0.018466
-0.025212
-0.033735
-0.041827
-0.078138
-0.093365
-0.085556
-0.058538
-0.054152
-0.094362
-0.092590
-0.102342
-0.113783
-0.112350
-0.093130
-0.091721
-0.071900
-0.088750
-0.081696
-0.103054
0.002707
-0.014497
-0.029747
-0.067903
-0.106260
-0.106373
-0.107392
-0.101046
-0.071172
-0.023769
-0.036224
0.068462
0.049518
0.074193
0.082241
0.105738
0.100340
0.096124
0.078710
0.089009
0.059976
0.056884
0.080316
0.067650
0.114334
0.160221
0.222638
0.259182
0.275980
0.248980
0.206675
0.153266
0.147110
-0.039969
-0.064857
-0.084277
-0.119154
-0.173381
-0.216963
-0.237083
-0.196648
-0.169920
-0.108805
-0.055644
0.004114
0.002286
-0.007132
-0.009505
-0.011147
-0.008293
-0.012785
-0.006120
-0.002424
-0.005012
-0.010589
-0.026282
-0.006413
-0.010713
-0.004974
0.015081
0.017550
0.022290
0.018072
0.008782
0.006827
-0.018671
-0.036776
0.025680
-0.051269
0.034201
0.069237
0.064710
0.036335
0.011782
-0.023575
-0.076989
0.024208
-0.017428
0.035334
-0.067707
-0.021866
0.017141
0.020689
-0.011518
-0.017384
-0.008741
-0.067542
0.020322
-0.001683
0.024101
-0.056501
-0.007736
0.062961
0.079786
0.029598
0.005226
0.005960
-0.066056
0.016086
0.004088
0.025077
-0.062204
-0.026412
0.014392
0.085559
0.047677
-0.031427
-0.008836
-0.065759
0.000868
-0.007703
0.020510
-0.072374
-0.023251
-0.005345
0.082932
0.089242
-0.012768
-0.030036
-0.073813
0.005982
0.005509
0.015415
-0.081529
-0.017389
-0.023093
0.071889
0.097285
0.010744
-0.023012
-0.078374
0.005286
0.026501
0.019907
-0.088626
-0.013380
0.000387
0.064590
0.099504
0.018985
-0.008298
-0.089445
0.002400
0.029052
0.007058
-0.084771
-0.022245
-0.031657
0.050612
0.093317
0.020773
-0.007453
-0.085941
0.004985
0.019585
0.015574
-0.074232
-0.028479
-0.020192
0.033073
0.073857
0.033172
0.011117
-0.078848
-0.001460
0.018065
0.014824
-0.045171
-0.017382
-0.002993
0.037281
0.060771
0.036181
0.025888
-0.056377
-0.018354
0.006785
0.006341
-0.097660
-0.054848
-0.003863
0.028047
0.039656
0.038068
0.068350
-0.047706
-0.019181
-0.040879
0.026365
-0.065975
0.052549
0.114454
0.114035
0.057020
0.019566
-0.041607
-0.109512
0.001113
-0.016083
0.010687
-0.094012
0.008906
0.081281
0.084587
0.044912
-0.010438
-0.038858
-0.108216
-0.009807
-0.028270
-0.005049
-0.126012
-0.006007
0.126984
0.174322
0.099590
0.025124
-0.028327
-0.121777
-0.038503
-0.015686
-0.000619
-0.111278
-0.032019
0.082185
0.181320
0.133727
0.011391
-0.035670
-0.119386
-0.053405
-0.039304
-0.036813
-0.146919
-0.044954
0.043114
0.182466
0.181176
0.040799
-0.033680
-0.142500
-0.062041
-0.016406
-0.051059
-0.180352
-0.056200
0.027980
0.169436
0.214637
0.082107
-0.027174
-0.156078
-0.069050
-0.004289
-0.056465
-0.193464
-0.065276
0.030187
0.163039
0.211678
0.093014
-0.014257
-0.146950
-0.070024
-0.005210
-0.050960
-0.178077
-0.074449
-0.002380
0.123065
0.190056
0.096241
-0.000943
-0.131952
-0.069662
0.011842
-0.020834
-0.140647
-0.064630
-0.012905
0.097512
0.169462
0.102949
0.040719
-0.092221
-0.051370
0.004049
-0.020846
-0.131487
-0.058847
-0.012197
0.064290
0.123126
0.081178
0.039999
-0.073531
-0.036728
0.023932
0.004959
-0.148502
-0.065820
0.000286
0.069695
0.089357
0.072031
0.070434
-0.023072
-0.021592
-0.018240
0.025645
-0.043954
0.057203
0.105458
0.087521
0.046833
-0.006272
-0.060036
-0.122905
0.010075
-0.024146
0.003733
-0.074798
0.003959
0.053788
0.058383
0.014159
-0.008023
-0.044060
-0.101631
-0.001677
-0.014918
-0.001654
-0.089694
0.013119
0.097071
0.130907
0.052596
-0.016582
-0.031928
-0.109419
-0.008016
-0.014084
-0.000784
-0.079147
-0.008492
0.064388
0.125850
0.074851
-0.026896
-0.041459
-0.111172
-0.019062
-0.023392
-0.018655
-0.097829
-0.012926
0.031901
0.133051
0.108557
0.008374
-0.050146
-0.107077
-0.023040
0.003725
-0.017861
-0.112276
-0.019955
0.026184
0.125176
0.134925
0.028214
-0.027317
-0.133157
-0.018435
0.016330
-0.030612
-0.142852
-0.020171
0.019290
0.124884
0.132051
0.036622
-0.030071
-0.130021
-0.018053
0.013176
-0.020122
-0.122237
-0.046708
0.011984
0.100241
0.135265
0.048692
-0.011087
-0.124496
-0.022616
0.022911
-0.009295
-0.103374
-0.032984
-0.006207
0.086180
0.123980
0.066569
0.001459
-0.097194
-0.011454
0.048039
0.012783
-0.084678
-0.027918
0.012250
0.079419
0.091824
0.052184
0.016427
-0.076195
-0.013420
0.036904
0.005161
-0.121779
-0.049761
0.021325
0.063997
0.066655
0.048357
0.038318
-0.059829
-0.014346
-0.005436
0.013061
-0.060424
0.075968
0.128091
-0.072756
-0.123947
-0.002633
0.069565
-0.021449
0.006691
0.004132
0.007988
-0.085999
0.047300
0.142455
-0.077906
-0.098973
0.056604
0.075498
-0.036646
-0.005190
0.000637
0.017779
-0.114566
0.095756
0.188607
-0.175563
-0.146300
0.091376
0.072862
-0.047034
-0.010016
0.011639
0.014510
-0.142642
0.144437
0.201233
-0.259150
-0.120900
0.158839
0.048610
-0.068590
0.001045
0.001808
0.014156
-0.130580
0.189792
0.192999
-0.351174
-0.069851
0.219719
0.012646
-0.072040
0.001332
-0.006222
-0.003990
-0.117236
0.201888
0.139930
-0.386870
0.008096
0.245901
-0.021837
-0.071005
0.010953
-0.001923
-0.009923
-0.096178
0.231901
0.067252
-0.377636
0.050336
0.223065
-0.044189
-0.060059
0.026704
0.006236
-0.011693
-0.064943
0.202546
0.007753
-0.322881
0.076896
0.162444
-0.037443
-0.050947
0.011604
-0.007476
-0.006094
-0.038355
0.158986
-0.045977
-0.236231
0.089701
0.130933
-0.024772
-0.042120
-0.000435
0.008125
0.000602
-0.022061
0.122672
-0.050790
-0.146216
0.081300
0.102819
-0.019360
-0.046316
0.014119
0.001651
0.015429
-0.006913
0.065516
-0.067551
-0.100114
0.043849
0.084408
-0.011658
-0.040216
-0.003324
-0.024193
0.022487
-0.034629
0.100482
0.147800
-0.105925
-0.204215
-0.042947
0.061034
0.027816
0.005617
-0.033856
0.025173
-0.067628
0.108991
0.180235
-0.136391
-0.194311
0.037438
0.092385
0.011500
0.006686
-0.029977
0.029290
-0.086352
0.192324
0.235754
-0.283952
-0.287563
0.084305
0.124339
0.004913
0.005156
-0.047150
0.034280
-0.092984
0.244857
0.242576
-0.411526
-0.257840
0.167998
0.117864
-0.011672
0.003511
-0.054004
0.036173
-0.066472
0.288902
0.195567
-0.546206
-0.220615
0.269440
0.103389
-0.023520
-0.003835
-0.051371
0.040694
-0.035843
0.345196
0.133230
-0.600330
-0.127842
0.324106
0.060919
-0.022646
0.006805
-0.044407
0.033077
-0.012015
0.346468
0.042225
-0.578866
-0.039972
0.286747
0.037112
-0.004329
-0.011155
-0.041602
0.011635
0.015043
0.302756
-0.046843
-0.508072
0.021633
0.230187
0.013709
-0.012759
-0.021124
-0.031145
0.033673
0.020700
0.225187
-0.125415
-0.363369
0.059001
0.197876
0.034139
-0.006518
-0.017674
-0.023788
0.023941
0.020939
0.124550
-0.116418
-0.231834
0.049107
0.128642
0.016854
0.000216
-0.019323
-0.005908
0.042606
0.014267
0.055252
-0.118527
-0.145479
0.031604
0.101208
0.011065
0.000376
0.011270
-0.003949
0.006415
-0.052908
0.083366
0.118048
-0.058988
-0.120798
-0.013478
0.044285
-0.015056
-0.002769
-0.005444
0.004245
-0.080207
0.054591
0.105960
-0.057651
-0.090796
0.039579
0.049267
-0.016105
-0.013443
-0.009065
0.021975
-0.101794
0.114529
0.186552
-0.137511
-0.145209
0.065826
0.056305
-0.015475
0.002688
-0.009298
0.006290
-0.114899
0.130583
0.189148
-0.210008
-0.114192
0.104459
0.042510
-0.018524
0.000553
-0.017056
0.027656
-0.121649
0.156479
0.185724
-0.292155
-0.094452
0.150977
0.011871
-0.036638
0.009190
-0.025063
0.011906
-0.110511
0.202238
0.151793
-0.328599
-0.043045
0.182147
-0.016021
-0.034381
0.012494
-0.025772
0.001918
-0.085784
0.216289
0.104110
-0.331880
0.009269
0.156199
-0.026157
-0.011579
0.013764
-0.023403
-0.009016
-0.062692
0.200647
0.033568
-0.285159
0.027477
0.107146
-0.015427
-0.009043
-0.016936
-0.006723
0.004120
-0.028717
0.172643
-0.023071
-0.212150
0.040965
0.102155
-0.012228
-0.011117
-0.006916
-0.021886
-0.007584
-0.009536
0.124800
-0.041953
-0.138753
0.021972
0.064664
-0.009722
-0.013320
-0.000023
0.003554
0.020740
0.010942
0.095896
-0.043880
-0.106676
0.003232
0.057227
-0.004161
-0.010592
0.004275
-0.013057
-0.018134
-0.005330
0.000806
0.016088
0.013856
-0.020017
-0.029084
-0.011642
-0.016866
-0.005632
0.045717
0.040052
-0.009632
-0.044350
-0.053480
-0.020202
0.013312
0.056785
0.054382
0.032057
0.009046
-0.020298
0.019345
0.053107
0.075997
0.053910
0.022855
-0.004261
-0.047050
-0.045068
-0.041701
-0.021100
-0.050852
-0.012620
0.026867
0.072795
0.094777
0.113338
0.069824
0.022909
-0.008145
-0.011438
0.008197
-0.012758
-0.134014
-0.294679
-0.409466
-0.422069
-0.326093
-0.206956
-0.051620
0.047008
0.049985
0.019497
0.148510
0.258902
0.402021
0.505842
0.488693
0.384942
0.226483
0.084875
0.007774
-0.018486
-0.009727
-0.147924
-0.094764
-0.099206
-0.048605
-0.026894
-0.028677
-0.032142
-0.029933
-0.038671
-0.028613
-0.002546
-0.051064
-0.183638
-0.376119
-0.507895
-0.509374
-0.400810
-0.232878
-0.077656
-0.006924
0.003912
0.011196
0.152326
0.320692
0.466791
0.583446
0.560002
0.433587
0.278240
0.129783
0.041213
0.016071
0.005300
-0.094732
-0.163509
-0.221589
-0.227629
-0.188832
-0.154474
-0.119926
-0.046683
-0.018623
-0.002985
-0.006930
0.013191
0.035599
0.014466
0.016966
-0.014597
-0.010169
-0.000230
-0.003344
0.000816
-0.016505
0.001241
0.005580
-0.008051
0.001170
0.023651
0.027939
0.024297
0.014180
-0.010701
0.003127
0.009168
0.017283
0.034964
0.021865
-0.025303
-0.071356
-0.063966
-0.038153
0.010752
0.036314
0.047240
0.025402
-0.000657
-0.023918
0.008489
0.079664
0.090848
0.074043
0.020335
-0.032539
-0.074165
-0.065474
-0.073061
-0.033733
-0.045878
-0.026676
0.012121
0.064615
0.077845
0.084188
0.060664
0.034001
0.013872
0.009339
0.025635
-0.014883
-0.149130
-0.341908
-0.463395
-0.477831
-0.375829
-0.223456
-0.044126
0.056184
0.067576
0.028916
0.183616
0.331134
0.527499
0.649713
0.615200
0.506959
0.295014
0.127883
-0.004855
-0.038934
-0.036301
-0.164745
-0.146835
-0.128991
-0.074021
-0.062074
-0.046990
-0.040305
-0.056117
-0.049589
-0.043908
0.000876
-0.098100
-0.276192
-0.502730
-0.664461
-0.694951
-0.536520
-0.318848
-0.132402
-0.026459
0.017602
0.033981
0.199642
0.370042
0.557569
0.669013
0.658358
0.499161
0.309081
0.141960
0.051557
0.028262
-0.015396
-0.070648
-0.156444
-0.185403
-0.184366
-0.142899
-0.107549
-0.075185
-0.034446
-0.010095
0.000265
-0.005684
0.003784
0.024335
-0.004517
-0.013868
-0.042124
-0.022649
-0.005571
-0.010767
0.005755
-0.003936
-0.003808
-0.014409
-0.027530
-0.004537
0.005471
0.006922
-0.002448
-0.011318
-0.019525
-0.018961
-0.001526
-0.009551
0.023569
0.024676
-0.021647
-0.045437
-0.042734
-0.011378
0.018676
0.030003
0.037740
0.039246
0.002901
-0.009952
0.013013
0.043684
0.052159
0.027549
-0.000909
-0.016915
-0.040861
-0.042075
-0.032589
-0.019138
-0.044507
0.002916
0.035682
0.092755
0.121251
0.125139
0.080402
0.044618
-0.000941
-0.009464
0.001326
-0.002191
-0.100753
-0.244824
-0.334312
-0.359654
-0.293449
-0.184947
-0.066535
0.023918
0.034674
0.002400
0.134976
0.197717
0.325203
0.407235
0.375115
0.293523
0.168841
0.069508
0.004333
-0.006000
-0.009912
-0.112348
-0.105368
-0.082008
-0.061879
-0.036339
-0.022132
-0.013696
-0.009642
-0.011564
-0.013397
0.008718
-0.038247
-0.143159
-0.279974
-0.383479
-0.393032
-0.302304
-0.161035
-0.060097
-0.003929
0.015263
-0.001357
0.146478
0.258289
0.414896
0.501750
0.483953
0.372290
0.229678
0.087947
0.029377
0.003126
-0.007521
-0.078675
-0.162669
-0.216342
-0.254287
-0.218685
-0.166156
-0.126941
-0.058684
0.005223
0.010619
0.036443
0.001208
0.030273
0.038103
0.026615
-0.000248
0.012940
0.034118
-0.001227
-0.000475
-0.016530
-0.024483
0.122189
0.086751
0.098630
0.069109
0.088806
0.123456
0.074507
0.006020
-0.046724
-0.063457
-0.002035
0.077427
0.040830
0.039540
0.004107
0.046870
0.065452
0.013098
-0.041673
-0.062612
-0.067320
-0.081683
0.134931
0.095685
0.094242
0.048507
0.115396
0.138582
0.079038
0.013377
-0.051427
-0.081250
-0.041147
0.150906
0.158047
0.233094
0.258450
0.274934
0.188326
0.059657
-0.066790
-0.129039
-0.111596
-0.032472
0.052473
0.166606
0.361073
0.376451
0.224062
-0.004427
-0.170712
-0.224652
-0.189532
-0.137336
-0.076286
-0.062747
0.023853
0.177065
0.095724
-0.072934
-0.212429
-0.226986
-0.129178
-0.043887
-0.053085
-0.029632
-0.112240
-0.176675
-0.150921
-0.204421
-0.241619
-0.191965
-0.004488
0.094026
0.083062
0.028267
0.050844
-0.124466
-0.212757
-0.204955
-0.241024
-0.204085
-0.089307
0.044689
