0.025296
0.119448
-0.333572
0.112657
-0.115818
-0.059723
0.114214
-0.095083
0.031485
-0.011093
-0.049384
0.091009
-0.052086
0.036598
-0.120179
-0.134162
-0.005046
-0.001438
-0.076294
-0.049133
-0.125496
0.233695
-0.081535
0.024502
-0.011238
0.132404
0.257809
-0.024450
0.073169
0.208156
0.059903
-0.011075
0.070557
0.005371
0.013942
-0.069005
0.095581
0.082127
-0.089249
0.023552
0.020885
0.209518
0.057000
0.100607
-0.151666
0.051431
0.060977
0.161200
0.046385
-0.293608
-0.192196
-0.033040
-0.228443
0.052254
-0.041985
-0.228564
-0.223742
-0.103984
-0.039473
0.023086
0.085222
-0.003752
0.099965
0.222434
0.140449
-0.083344
-0.015321
0.000846
0.020019
-0.146615
-0.052505
-0.081782
0.381300
-0.034659
-0.042694
0.018965
0.301558
0.128229
0.137990
0.120630
-0.034695
0.100094
-0.079640
-0.075065
0.102333
0.322077
0.212166
0.307161
-0.008174
0.132005
-0.068293
0.140884
-0.063016
-0.082268
0.033019
-0.189079
-0.016634
-0.183687
0.200201
0.069814
-0.013038
0.131101
0.193469
0.346339
-0.042031
-0.016328
0.119631
-0.068291
-0.150220
0.009908
-0.309868
0.090031
-0.081147
-0.052415
-0.090178
0.050669
-0.026872
0.148791
-0.060823
-0.070688
-0.034375
0.199654
0.552662
-0.071537
-0.009491
0.100713
-0.009510
-0.025680
0.097761
0.011309
0.527282
0.271527
0.135559
0.229638
-0.126274
0.013784
-0.022356
-0.189212
-0.045453
-0.029798
0.046675
-0.051737
-0.175425
-0.343378
-0.005726
-0.235480
0.053668
0.349091
-0.234156
-0.112498
0.031410
-0.096694
-0.165649
-0.002265
-0.259390
0.050781
0.089765
-0.010748
0.128418
0.035524
0.033868
-0.005542
-0.095143
-0.030961
0.032034
0.052717
0.126299
0.159363
0.035871
0.035311
0.369747
0.017943
-0.022763
-0.095617
0.172915
0.051715
0.153224
-0.012241
0.250965
-0.016052
0.022399
-0.028640
0.119714
-0.025529
-0.041908
0.210123
-0.134796
-0.164780
-0.025691
-0.129161
-0.164630
0.053876
0.114692
-0.119337
-0.059146
-0.150546
-0.027029
0.107136
-0.088103
0.114751
0.174469
0.157973
0.052465
-0.028796
0.244296
0.145839
0.011052
0.218817
0.398740
0.320795
-0.087249
-0.077314
0.055055
-0.074239
0.299410
-0.111959
0.020385
-0.165326
-0.084008
0.091928
-0.016281
-0.013456
0.034111
-0.152275
0.079972
-0.015468
0.090530
-0.124252
0.040860
0.065097
-0.037378
-0.025349
0.288632
-0.177862
0.045379
0.080375
-0.118568
0.126848
0.013253
0.004498
0.083759
0.150473
-0.074856
-0.051144
-0.158489
0.111110
0.020428
0.019939
0.249655
0.213427
0.119218
0.152133
0.101188
-0.020210
0.018933
-0.155833
0.260897
-0.029025
0.065378
0.093637
-0.033498
-0.104452
0.143073
0.080963
-0.162996
0.183344
-0.063191
0.034443
0.022093
-0.102056
0.087264
0.018751
-0.150142
0.239397
0.223946
-0.024017
0.231098
-0.109601
-0.169530
-0.036366
-0.050821
0.076745
0.206425
0.001426
0.112770
-0.203538
0.080649
0.204213
0.369167
0.122661
-0.023815
-0.073110
-0.015845
0.127719
-0.057867
0.286718
-0.004266
-0.000021
0.216050
0.155205
-0.016205
-0.097204
-0.100465
-0.019993
-0.152166
-0.059612
0.003125
-0.341288
0.162359
0.174701
0.209882
-0.063615
0.054698
-0.245667
0.125530
-0.044876
-0.059439
0.029393
0.150978
-0.040008
0.112082
-0.155188
0.504680
-0.047305
-0.075279
0.042626
-0.133829
-0.420123
0.382007
0.089413
0.053007
0.058240
0.042868
0.025090
0.197128
0.101198
-0.111929
-0.028088
0.354228
0.023811
0.122844
-0.124157
0.030930
-0.115436
-0.028152
0.023655
0.015912
0.100236
0.111656
0.008482
-0.130857
0.092488
-0.005363
0.089322
0.053354
0.066519
0.035378
0.044817
-0.087586
0.136020
0.187844
-0.037431
0.034593
0.038587
-0.195057
-0.084326
-0.067575
-0.011365
0.108260
-0.109334
-0.045308
0.021318
0.121065
0.112196
-0.095198
0.509554
-0.003251
0.054857
0.067155
0.109053
0.018573
-0.029313
0.011019
-0.011489
