-0.109280
-0.172633
-0.051698
-0.065495
-0.039439
0.174203
-0.184644
0.095525
-0.025099
-0.030075
0.136538
-0.322694
-0.148344
0.127898
0.004068
-0.057279
-0.002144
0.203139
0.330983
0.073128
0.497977
-0.044765
-0.082151
0.014895
-0.046373
0.057510
0.019020
0.000745
-0.181820
-0.000122
-0.131622
-0.127432
0.005996
-0.427401
0.116481
-0.163747
-0.060307
-0.231126
0.241878
-0.078616
0.020777
-0.025044
-0.044685
0.028326
-0.174593
0.071566
-0.057368
0.120703
-0.058133
-0.173466
-0.127818
0.053739
0.045314
0.094975
0.010401
0.138772
-0.136642
0.242930
0.145116
0.481017
-0.117933
-0.159273
0.160187
0.225594
0.096043
0.029943
-0.175760
-0.095031
0.234457
-0.245194
0.102531
-0.243156
-0.056964
-0.027844
-0.346110
0.040740
-0.230852
0.191222
0.162878
0.295988
-0.136995
0.005228
-0.166033
-0.077020
-0.116856
0.068327
-0.098369
-0.091281
-0.164895
0.062494
0.102306
-0.005752
-0.172419
-0.008580
-0.120021
-0.186324
-0.053833
-0.067391
-0.147952
0.026208
0.039989
-0.219919
-0.149849
-0.083122
-0.067938
-0.078998
-0.042145
0.371652
-0.183474
0.061246
-0.477211
-0.217035
-0.070511
-0.099998
-0.044748
0.086560
-0.136052
-0.182628
-0.037893
-0.292785
-0.139113
0.141296
0.294905
0.276070
-0.044584
0.367326
0.087795
-0.020914
0.209412
0.499352
0.149908
-0.132681
0.215152
0.232502
0.144880
-0.082328
-0.032715
-0.127610
0.111769
0.387591
-0.037940
-0.179500
0.315192
-0.040012
0.326061
0.010944
-0.420195
-0.193304
0.046443
0.014548
0.041791
0.148708
-0.155673
-0.161593
0.491274
-0.145755
0.130401
-0.032479
-0.033374
-0.307216
0.303477
-0.082917
0.150315
-0.021193
0.177078
0.205793
0.106366
-0.144605
-0.160455
-0.026753
-0.067287
0.487356
0.174102
0.184110
-0.089367
0.144087
0.053045
-0.131007
-0.084564
-0.036975
-0.238064
-0.080580
-0.097469
0.148953
-0.003073
0.286903
0.093942
0.120061
-0.124382
0.072421
0.013842
0.072982
